tree
version=v4
num_class=1
num_tree_per_iteration=1
label_index=0
max_feature_idx=23
objective=binary sigmoid:1
feature_names=payment_consistency debt_service_ratio payroll_variance income_stability_score spending_var_6m payroll_streak spending_stability zone_encoded income_volatility current_debt savings_rate age_risk_factor age utilization dti spending_to_income_ratio income_trend_6m late_payment_risk credit_utilization_health stability_utilization_interaction age_income_interaction income_monthly financial_health_score dti_health_score
feature_infos=[-1.2745498893890632:1.1700927690269698] [-0.023332449541721093:81.587775858378677] [-0.87135004828617713:1.6991257410459391] [-1.6611239123350103:0.90349411046176564] [-0.35376459916779385:40.037679853670731] [-1.2745498893890632:1.1700927690269698] [-18.560405699146827:0.38558182235342947] [-1.5374791261000342:1.7849850012560113] [-0.87135004828617713:1.6991257410459391] [-0.58911859738653438:4.7083242541301962] [-11.116924383674901:1.4565578606286516] [-1.4486424143200012:2.3071231414930753] [-1.9678837849108053:1.8876759129983189] [-2.0312591429608648:5.3523462812934079] [-1.3260330293845508:69.105892150679381] [-6.253072533899994:26.567217672562915] [-1.1584074224646004:1.8419603160283922] [-0.87135004828617668:1.6991257410459393] [-5.3523462812934071:2.0312591429608648] [-2.0249823520586192:5.4289807375345269] [-0.57008771092020449:81.259507112884691] [-0.6236861067481827:75.737248790791966] [-1.8468550780628967:1.4333619100377635] [-69.105892150679395:1.3260330293845508]
tree_sizes=1220 1231 1226 1237 1247 1246 1248 1245 1250 1235 1243 1246 1250 1246 1241 1257 1253 1250 1244 1251 1240 1249 1252 1247 1246 1248 1249 1240 1248 1253 1242 1246 1252 1240 1246 1244 1246 1248 1249 1246 1244 1247 1248 1250 1248 1248 1250 1250 1255 1240 1252 1256 1251 1255 1262 1253 1254 1258 1253 1255 1270 1262 1256 1258 1252 1264 1261 1257 1257 1258 1265 1256 1260 1266 1257 1256 1260 1257 1260 1258 1262 1257 1263 1257 1256 1270 1260 1259 1261 1268 1257 1264 1269 1258 1254 1251 1252 1264 1264 1268 1254 1266 1266 1265 1269 1262 1268 1261 1265 1257 1271 1271 1265 1261 1266 1257 1264 1268 1256 1264 1252 1265 1266 1264 1259 1266 1256 1261 1260 1263 1266 1274 1259 1265 1263 1259 1265 1271 1276 1263 1264 1248 1256 1258 1260 1258 1265 1259 1264 1272 1266 1259 1267 1261 1265 1259 1264 1263 1269 1264 1247 1263 1261 1241 1259 1255 1265 1268 1268 1265 1263 1264 1266 1263 1267 1268 1267 1249 1264 1250 1258 1260 1252 1268 1256 1264 1267 1270 1266 1252 1267 1265 1266 1278 1275 1244 1259 1247 1250 1227 1252 1266 1268 1267 1259 1258 1271 1256 1271 1262 1267 1269 1269 1255 1265 1273 1268 1262 1269 1263 1257 1248 1267 1257 1248 1269 1252 1256 1254 1271 1277 1253 1271 1273 1257 1276 1267 1256 1257 1272 1252 1263 1263 1259 1252 1263 1260 1261 1265 1260 1248 1246 1277 1272 1270 1268 1254 1251 1260 1254 1264 1275 1269 1276 1271 1253 1275 1264 1261 1273 1263 1265 1267 1244 1268 1269 1276 1268 1259 1278 1262 1272 1256 1260 1261 1251 1248 1248 1252 1240 1265 1255 1261 1256 1255 1263 1258 1255 1269 1249 1277 1269 1248 1258 1264 1275 1263 1255 1268 1260 1257 1254 1258 1256 1260 1258 1264 1257 1260 1259 1257 1248 1259 1264 1255 1261 1261 1258 1251 1262 1269 1257 1268 1260 1263 1254 1236 1255 1258 1255 1261 1272 1265 1258 1257 1231 1264 1264 1270 1248 1247 1267 1264 1257 1249 1259 1247 1256 1261 1254 1268 1274 1264 1264 1259 1260 1226 1256 1248 1265 1254 1266 1259 1257 1250 1266 1260 1265 1227 1258 1262 1261 1260 1251 1262 1237 1240 1249 1248 1254 1240 1245 1246 1249 1244 1250 1247 1265 1261 1252 1259 1255 1261 1252 1257 1233 1252 1272 1240 1241 1240 1248 1240 1252 1250 1265 1261 1258 1259 1270 1261 1257 1261 1260 1256 1245 1261 1243 1250 1247 1249 1249 1247 1253 1262 1252 1261 1266 1245 1264 1247 1249 1270 1252 1269 1264 1246 1242 1239 1259 1224 1238 1245 1241 1243 1251 1276 1256 1274 1245 1278 1257 1271 1261 1262 1252 1242 1251 1252 1264 1266 1270 1246 1261 1265 1263 1263 1256 1259 1220 1255 1261 1254 1254 1261 1258 1255 1285 1255 1258 1230 1231 1267 1251 1252 1241 1260 1258 1243 1240 1258 1247 1266 1271 1243 1239 1254 1250 1254 1251 1258 1257 1241 1255 1251 1256 1250 1254 1240 1240 1264 1243 1245 1254 1257 1246 1253 1258 1256 1265 1258 1258 1250 1229 1251 1271 1274 1244 1259 1260 1240 1249 1228 1251 1257 1243 1236 1241 1271 1232 1242 1244 1262 1213 1266 1245 1250 1240 1246 1237 1246 1258 1247 1235 1246 1268 1268 1247 1247 1268 1242 1249 1241 1257 1242 1235 1233 1246 1236 1257 1272 1267 1265 1277 1251 1267 1271 1266 1265 1265 1254 1245 1250 1239 1229 1245 1238 1244 1234 1238 1266 1267 1259 1268 1271 1251 1261 1268 1245 1272 1254 1247 1252 1240 1255 1249 1237 1242 1213 1258 1213 1240 1233 1251 1252 1254 1230 1250 1238 1263 1244 1245 1242 1252 1245 1257 1254 1262 1264 1260 1272 1259 1274 1261 1258 1276 1268 1262 1246 1250 1246 1239 1249 1231 1238 1268 1260 1257 1255 1263 1267 1268 1271 1261 1263 1250 1230 1257 1233 1262 1245 1248 1241 1266 1260 1259 1251 1266 1260 1268 1253 1256 1258 1251 1263 1261 1239 1262 1258 1242 1254 1262 1262 1259 1256 1267 1274 1267 1265 1258 1234 1235 1231 1257 1235 1253 1222 1258 1244 1256 1250 1271 1244 1235 1247 1274 1245 1266 1258 1241 1244 1238 1268 1234 1267 1243 1238 1268 1252 1242 1266 1269 1256 1245 1255 1257 1261 1236 1250 1267 1259 1240 1231 1259 1235 1262 1258 1253 1262 1252 1234 1253 1248 1254 1244 1255 1238 1253 1249 1264 1239 1258 1215 1250 1232 1250 1244 1242 1261 1240 1254 1256 1249 1263 1254 1267 1257 1237 1237 1265 1243 1250 1243 1243 1217 1228 1228 1226 1245 1229 1257 1258 1253 1260 1254 1244 1264 1269 1254 1241 1273 1260 1256 1233 1259 1237 1239 1259 1227 1239 1217 1223 1227 1226 1230 1271 1259 1260 1247 1270 1252 1257 1255 1266 1267 1247 1227 1255 1251 1249 1234 1244 1235 1205 1251 1251 1267 1244 1243 1252 1217 1253 1241 1234 1249 1248 1237 1249 1245 1243 1268 1249 1264 1257 1260 1249 1247 1259 1263 1254 1239 1267 1243 1239 1241 1244 1249 1241 1240 1250 1276 1260 1268 1272 1263 1238 1240 1241 1253 1237 1215 1207 1245 1230 1239 1240 1242 1269 1243 1267 1262 1269 1261 1260 1247 1267 1264 1260 1258 1258 1247 1255 1246 1257 1246 1267 1259 1249 1251 1260 1261 1259 1248 1249 1259 1257 1252 1249 1264 1252 1236 1247 1247 1244 1232 1242 1275 1267 1261 1262 1229 1255 1249 1228 1251 1254 1251 1245 1266 1253 1258 1250 1253 1252 1266 1249 1260 1259 1265 1275 1270 1260 1271 1267 1268 1248 1238 1235 1220 1258 1249 1270 1269 1273 1255 1249 1235 1233 1234 1202 1250 1253 1251 1256 1255 1253 1234 1232 1241 1248 1246 1257 1254 1261 1264 1261 1250 1224 1222 1226 1254 1248 1258 1255 1224 1264 1263 1260 1252 1268 1261 1251 1254 1250 1256 1212 1261 1261 1250 1227 1237 1251 1269 1279 1267 1219 1219 1205 1231 1210 1252 1266 1256 1254 1271 1259 1259 1256 1239 1251 1233 1243 1243 1237 1253 1257 1235 1246 1253 1254 1274 1272 1227 1279 1256 1263 1264 1265 1266 1260 1237 1248 1238 1245 1235 1272 1276 1265 1272 1263 1262 1264 1239 1256 1267 1236 1206 1254 1217 1257 1248 1233 1267 1240 1242 1262 1231 1231 1268 1267 1231 1258 1244 1263 1242 1246 1240 1239 1243 1247 1259 1253 1250 1249 1257 1220 1247 1234 1232 1239 1247 1242 1254 1236 1257 1246 1253 1251 1254 1258 1260 1270 1249 1247 1281 1255 1243 1236 1244 1256 1264 1236 1259 1229 1254 1257 1255 1252 1233 1233 1255 1255 1258 1252 1261 1261 1246 1244 1248 1258 1252 1252 1255 1268 1272 1276 1265 1256 1270 1273 1258 1241 1260 1236 1262 1258 1258 1262 1231 1259 1258 1214 1213 1225 1246 1262 1257 1254 1245 1245 1252 1263 1232 1235 1247 1246 1241 1247 1251 1239 1269 1268 1256 1218 1210 1268 1247 1261 1256 1261 1252 1266 1262 1268 1266 1251 1241 1241 1227 1246 1223 1239 1251 1244 1250 1247 1249 1254 1239 1256 1224 1200 1233 1238 1240 1254 1268 1263 1247 1252 1265 1270 1258 1254 1245 1252 1243 1240 1246 1246 1242 1251 1266 1259 1251 1253 1249 1254 1244 1248 1264 1252 1236 1223 1234 1250 1254 1257 1255 1265 1146 1243 1127 1248 1160 1267 1264 1267 1240 1267 1271 1245 1253 1268 1256 1262 1258 1263 1265 1213 1259 1249 1239 1247 1251 1258 1266 1267 1260 1264 1253 1243 1239 1244 1232 1235 1239 1238 1259 1266 1256 1255 1214 1226 1255 1272 1242 1270 1243 1245 1251 1252 1252 1244 1276 1266 1266 1275 1265 1253 1238 1250 1242 1254 1243 1265 1256 1215 1244 1209 1249 1246 1259 1234 1260 1253 1254 1248 1258 1241 1259 1262 1256 1257 1256 1248 1271 1234 1224 1258 1249 1237 1244 1251 1241 1225 1268 1263 1255 1261 1224 1270 1283 1264 1257 1222 1234 1244 1241 1222 1259 1260 1243 1245 1253 1254 1235 1259 1252 1255 1266 1250 1229 1245 1244 1248 1246 1235 1250 1244 1250 1238 1226 1268 1259 1266 1267 1272 1259 1253 1250 1240 1241 1253 1240 1244 1236 1234 1236 1233 1266 1263 1248 1276 1264 1246 1231 1266 1229 1215 1254 1228 1215 1230 1258 1249 1260 1251 1244 1247 1244 1229 1240 1253 1222 1278 1271 1255 1254 1268 1270 1259 1261 1257 1255 1235 1231 1221 1231 1215 1260 1240 1257 1272 1269 1282 1271 1280 1274 1268 1250 1250 1257 1256 1240 1263 1271 1264 1259 1250 1245 1241 1245 1250 1246 1249 1251 1228 1249 1236

Tree=0
num_leaves=10
num_cat=0
split_feature=1 10 14 14 18 10 10 13 14
split_gain=782113 47077.6 15532.4 9542.71 4683.19 3763.65 3364.34 3172.28 917.309
threshold=-0.023332433826511827 0.10644281655149494 -0.10880861673810066 0.381183255135217 0.70439131918212994 -0.37940331090789842 -0.25541154796864302 -0.49435440339371467 0.82041337913101109
decision_type=2 2 2 2 2 2 2 2 2
left_child=1 3 4 5 -3 -1 -2 -4 -5
right_child=6 2 7 8 -6 -7 -8 -9 -10
leaf_value=-1.7719588499502699 -1.9041700962778276 -1.8107150991177665 -1.8053791317718246 -1.7620356258583978 -1.8335200857478549 -1.7881634552711037 -1.9194347073664055 -1.7845104863797774 -1.7509124984856455
leaf_weight=29926.691649258137 19044.768544912338 27255.054179131985 8902.8499636352062 17323.304887920618 11601.295352548361 23018.761319577694 40926.242882549763 25730.685372650623 11673.552139729261
leaf_count=110960 142279 131119 41475 59335 63340 95963 323533 104594 36286
internal_value=-1.82256 -1.78705 -1.80449 -1.77141 -1.81752 -1.779 -1.91459 -1.78987 -1.75755
internal_weight=215403 155432 73489.9 81942.3 38856.3 52945.5 59971 34633.5 28996.9
internal_count=1108884 643072 340528 302544 194459 206923 465812 146069 95621
is_linear=0
shrinkage=1


Tree=1
num_leaves=10
num_cat=0
split_feature=1 15 23 23 15 19 15 19 23
split_gain=612362 33567.2 9246.5 8550.32 4046.5 3415.09 3112.63 1712.6 1608.54
threshold=-0.023332433826511827 -0.29343922043404824 -0.15205036541028447 0.021385606504587363 0.21709608421652912 -0.75260130355747978 0.2383129763116322 -1.0986738463041106 -0.78939231098363594
decision_type=2 2 2 2 2 2 2 2 2
left_child=1 3 8 7 -4 -5 -2 -1 -3
right_child=6 2 4 5 -6 -7 -8 -9 -10
leaf_value=0.091850956979714501 0.003543402456130924 0.14631156510010832 0.11243308773053214 0.077737975583683991 0.12831564603937345 0.098065452809948259 0.018163246204128295 0.11788189401438624 0.13480336998715092
leaf_weight=2573.2769086509943 41106.92562096566 16126.699029825628 27059.875623300672 10469.82475630939 31348.677703127265 26092.883022382855 19245.705137200654 21983.283010102808 36001.920506201684
leaf_count=11932 324071 45104 108385 54436 107139 116946 141741 83383 115747
internal_value=0.0904037 0.119303 0.12917 0.101455 0.12096 0.0922477 0.00820621 0.115159 0.138367
internal_weight=232009 171656 110537 61119.3 58408.6 36562.7 60352.6 24556.6 52128.6
internal_count=1108884 643072 376375 266697 215524 171382 465812 95315 160851
is_linear=0
shrinkage=0.03


Tree=2
num_leaves=10
num_cat=0
split_feature=9 15 14 14 10 15 13 10 15
split_gain=493138 24734.7 6807.29 6728.25 3387.71 2866.03 2037.34 2005 903.2
threshold=-0.58911329994368278 -0.30001175073142816 0.27190449234332603 -0.28788478286158653 -0.34445895055415188 0.18916056034259079 -0.63976457586261726 0.87487069167312004 0.2768981195535084
decision_type=2 2 2 2 2 2 2 2 2
left_child=1 3 4 7 -3 -2 -5 -1 -4
right_child=5 2 8 6 -6 -7 -8 -9 -10
leaf_value=0.085762501329930088 0.003223281217865383 0.11537541401851696 0.11780491742529925 0.086574751064603425 0.10235427978771 0.016975448777176889 0.10357000613121133 0.068453786141652095 0.1262752841522651
leaf_weight=19078.627487823367 40027.048597753048 34185.696622684598 19057.15134023875 8236.2177407741547 38420.711906015873 20693.672276385128 28762.304062001407 8881.2962707281113 29926.293134152889
leaf_count=82935 314960 104742 56134 35100 139138 150849 103018 43103 78905
internal_value=0.0821703 0.106341 0.114328 0.0913891 0.108487 0.00791073 0.09979 0.0802682 0.122983
internal_weight=247269 186548 121590 64958.4 72606.4 60720.7 36998.5 27959.9 48983.4
internal_count=1108884 643075 378919 264156 243880 465809 138118 126038 135039
is_linear=0
shrinkage=0.03


Tree=3
num_leaves=10
num_cat=0
split_feature=9 10 14 14 15 13 15 14 13
split_gain=405970 19354.1 6454.25 4520.98 3095.08 2933.38 2645.24 1211.79 769.12
threshold=-0.58911329994368278 0.463046563073988 0.15346041396243726 0.21550255025718867 0.21709608421652912 -0.89423237768319652 0.2383129763116322 0.55955439698262588 -0.66399960460743457
decision_type=2 2 2 2 2 2 2 2 2
left_child=1 2 4 5 -1 -3 8 -4 -2
right_child=6 3 7 -5 -6 -7 -8 -9 -10
leaf_value=0.090127073709327876 -0.0026224204493918049 0.061278895820173221 0.10439708765493223 0.09506481482044675 0.10218229901438952 0.080299465318841273 0.0166587972785271 0.1125588806267681 0.0061330978974903994
leaf_weight=40212.853620886803 13319.729532808065 9537.7593696415424 31865.162502162158 15198.167692653835 37000.025897935033 31576.843199685216 19750.320448130369 34855.120001718402 28006.471248522401
leaf_count=141601 106705 45092 89342 50120 107320 123908 141740 85692 217364
internal_value=0.0753339 0.0959845 0.10182 0.0810668 0.0959055 0.0758894 0.00762757 0.108663 0.00331041
internal_weight=261322 200246 143933 56312.8 77212.9 41114.6 61076.5 66720.3 41326.2
internal_count=1108884 643075 423955 219120 248921 169000 465809 175034 324069
is_linear=0
shrinkage=0.03


Tree=4
num_leaves=10
num_cat=0
split_feature=1 10 23 23 15 15 13 10 22
split_gain=340187 15734.7 6484.86 2564.3 2443.58 2170.32 1935.86 1238.87 817.703
threshold=-0.023332433826511827 0.016305202301227884 0.28858980713766313 -0.38329832796344687 0.2966280894711289 -0.71476206960623989 -0.49435440339371467 -0.65678688552505038 1.2303071580302645
decision_type=2 2 2 2 2 2 2 2 2
left_child=1 3 6 -1 8 -4 -3 -5 -2
right_child=4 2 5 7 -6 -7 -8 -9 -10
leaf_value=0.10183814088808597 0.0048388328565102841 0.076495643542032851 0.059951546769516202 0.096867451522022641 0.016435817527317299 0.074746123448571816 0.08841119020408425 0.088571942468758283 -0.0086288488909029865
leaf_weight=38944.465714633465 38286.267141394317 16634.425399318337 12919.175568789244 28696.819737777114 18598.283014170825 29292.963286176324 48070.102277874947 38303.081459388137 4536.0603575110435
leaf_count=88446 297081 59007 55899 73861 131604 108754 144966 112139 37127
internal_value=0.069554 0.0875009 0.0793774 0.0956979 0.00735589 0.0702204 0.0853496 0.0921268 0.00341137
internal_weight=274282 212861 106917 105944 61420.6 42212.1 64704.5 66999.9 42822.3
internal_count=1108884 643072 368626 274446 465812 164653 203973 186000 334208
is_linear=0
shrinkage=0.03


Tree=5
num_leaves=10
num_cat=0
split_feature=9 15 14 23 15 10 13 13 14
split_gain=286630 13705.5 4951.43 3344.07 2539.88 1903.06 1613.18 1088.86 1046.22
threshold=-0.58911329994368278 -0.40562364907206139 0.049821845379160068 0.19482157841945999 -0.038701729379563767 -0.20067088359288113 -0.14698565805133629 -1.0557992359819772 0.77740689829033138
decision_type=2 2 2 2 2 2 2 2 2
left_child=1 3 5 7 -2 -3 -5 -1 -4
right_child=4 2 8 6 -6 -7 -8 -9 -10
leaf_value=0.060167045108006197 0.0018056243940899287 0.084191103593497421 0.087895277917977535 0.054721340901367987 0.014043001158369971 0.074625885740653555 0.068334913895597524 0.077379205853308153 0.095350334283320612
leaf_weight=3784.2966580539942 33885.781996302307 37725.348989605904 61252.296526536345 15556.394300535321 27786.065133415163 37636.67972895503 15943.978320091963 28556.501850768924 23885.116289123893
leaf_count=14576 265779 98333 150352 65238 199008 120488 57750 86802 49536
internal_value=0.0646001 0.0803464 0.0850246 0.0685835 0.00731976 0.0794156 0.0616148 0.075368 0.0899882
internal_weight=286012 224341 160499 63841.2 61671.8 75362 31500.4 32340.8 85137.4
internal_count=1107862 643075 418709 224366 464787 218821 122988 101378 199888
is_linear=0
shrinkage=0.03


Tree=6
num_leaves=10
num_cat=0
split_feature=9 15 14 14 15 18 15 6 15
split_gain=246681 11664.1 4057.77 2912.98 2378 2276.77 1219.62 891.315 648.776
threshold=-0.58911329994368278 -0.21824421767412799 0.27190449234332603 0.10128861753276074 -0.30627201246150854 0.90231072059813588 0.68801902746108867 1.0000000180025095e-35 -0.92501748835587472
decision_type=2 2 2 2 2 2 2 2 2
left_child=1 2 5 6 -2 -1 -3 -6 -4
right_child=4 3 8 -5 7 -7 -8 -9 -10
leaf_value=0.065000207313625796 -0.00010152694892336215 0.072687412990957087 0.063178678715721637 0.083768868888083881 0.022349833215084474 0.051472020214486269 0.081498264446612401 0.0098097362039356612 0.078403457770483062
leaf_weight=52681.662662446499 24932.122510671616 49692.346742913127 2921.1452039033175 74516.970741465688 6114.4174919202924 14284.194473102689 20018.310245603323 30956.052378959954 20927.486221373081
leaf_count=173957 196643 138857 9108 161837 42524 57424 46855 225620 55037
internal_value=0.0602907 0.0743321 0.0659056 0.0796372 0.00706133 0.0621158 0.0752191 0.0118795 0.0765426
internal_weight=297045 235042 90814.5 144228 62002.6 66965.9 69710.7 37070.5 23848.6
internal_count=1107862 643075 295526 347549 464787 231381 185712 268144 64145
is_linear=0
shrinkage=0.03


Tree=7
num_leaves=10
num_cat=0
split_feature=1 10 14 10 13 10 14 14 6
split_gain=214505 10200.3 4232.96 2207.04 2100.86 1713.99 1499.4 986.523 840.564
threshold=-0.023332433826511827 0.58985539336039616 0.035721359857626124 0.19232149048704381 -1.1931310655359406 -0.20067088359288113 0.30504063331893128 0.77740689829033138 1.0000000180025095e-35
decision_type=2 2 2 2 2 2 2 2 2
left_child=1 2 5 -2 8 -1 -6 -4 -3
right_child=3 4 7 -5 6 -7 -8 -9 -10
leaf_value=0.072245377951792089 0.012189394542247102 0.06166901107204234 0.074755579520267471 0.00088379458730060585 0.056785383565485591 0.063922304368353139 0.069498427688179737 0.081436931243848945 0.037148084758031129
leaf_weight=40506.349756002426 32683.217927701771 1623.0806291550398 73763.937820702791 29639.697180874646 34447.649367406964 50073.022982850671 11097.165935754776 27672.110205695033 5729.2933968752623
leaf_count=96647 232236 5755 167608 232551 115842 150569 29438 52872 24344
internal_value=0.0565058 0.0691509 0.0723655 0.00681323 0.0574802 0.0676454 0.0598851 0.0765794 0.042573
internal_weight=307236 244913 192015 62322.9 52897.2 90579.4 45544.8 101436 7352.37
internal_count=1107862 643075 467696 464787 175379 247216 145280 220480 30099
is_linear=0
shrinkage=0.03


Tree=8
num_leaves=10
num_cat=0
split_feature=1 10 23 10 23 10 10 10 10
split_gain=188187 9107.12 3910.46 2094.13 1633.21 1508.64 998.861 725.043 664.541
threshold=-0.023332433826511827 0.050106337987309547 0.11867895660317483 -0.33221490615469501 -0.38329832796344687 0.89232415947245214 0.94642595480971381 -0.80954345631433033 0.44894940769743213
decision_type=2 2 2 2 2 2 2 2 2
left_child=1 4 6 -2 -1 -4 -3 -6 -5
right_child=3 2 5 8 7 -7 -8 -9 -10
leaf_value=0.074520090679416853 0.014837287142475243 0.065612039354052298 0.055827179237795073 0.0065713627092149557 0.071568279074724891 0.044322914117914398 0.05435347061400847 0.065588065816630375 -0.00084744715930770936
leaf_weight=48199.366282209754 19163.629372857511 52983.693814903498 47850.015526220202 22148.662275910378 27603.803759425879 13132.033075153828 8270.9834512621164 55971.751613229513 21319.606185100973
leaf_count=90407 130081 133177 151708 166191 58505 48966 24604 135708 168515
internal_value=0.0531518 0.0646361 0.0587349 0.0065754 0.0701094 0.0533511 0.0640932 0.0675644 0.00293208
internal_weight=316644 254012 122237 62631.9 131775 60982 61254.7 83575.6 43468.3
internal_count=1107862 643075 358455 464787 284620 200674 157781 194213 334706
is_linear=0
shrinkage=0.03


Tree=9
num_leaves=10
num_cat=0
split_feature=15 18 18 21 15 10 23 22 23
split_gain=14454.6 4808.86 3523.95 1883.06 1494.27 1490.82 1227.7 976.135 970.928
threshold=-0.31271214252174778 0.621790262876878 0.14294648659386683 -0.023983825389374411 -0.91489992123960306 -0.50798069180731065 -0.29940043911031827 1.305414603980759 0.16098041316777784
decision_type=2 2 2 2 2 2 2 2 2
left_child=1 4 3 8 -1 -4 -6 -3 -2
right_child=2 7 5 -5 6 -7 -8 -9 -10
leaf_value=0.036289797936971728 0.06184449838811347 0.033671103490921922 0.054790606608546094 0.051945156016587814 0.05406524116386599 0.046543900190881421 0.044788758129594 0.017815622785857292 0.054971330381779059
leaf_weight=13436.07826102525 69605.995185747743 28772.699633486569 33129.153608106077 36165.874158248305 17662.496599733829 49268.820365592837 47820.133053600788 3991.6687348037958 25474.85622639209
leaf_count=56487 184176 132882 101212 115177 58659 174665 185412 21194 77998
internal_value=0.0501557 0.0414075 0.0547284 0.0577839 0.0454198 0.0498606 0.0472921 0.031741 0.0600039
internal_weight=325328 111683 213645 131247 78918.7 82398 65482.6 32764.4 95080.9
internal_count=1107862 454634 653228 377351 300558 275877 244071 154076 262174
is_linear=0
shrinkage=0.03


Tree=10
num_leaves=10
num_cat=0
split_feature=9 10 14 18 15 10 14 10 22
split_gain=164930 6864.21 2943.2 1963.53 1625.97 1334.29 878.568 622.353 604.917
threshold=-0.58911329994368278 0.56155993384780356 0.23947337564379703 0.43780600298914168 -0.39951404747567304 -0.45531738007299155 0.39880886203713489 -0.57845709604763818 -1.1436857627528814
decision_type=2 2 2 2 2 2 2 2 2
left_child=1 2 5 6 -2 -1 -3 -6 -5
right_child=4 3 -4 8 7 -7 -8 -9 -10
leaf_value=0.061663591499878684 -0.0021473417279356038 0.050318452479623688 0.064570217980728567 0.05448504894951435 0.012769914064762071 0.055039671374626398 0.061002179192189337 0.0051964883974053317 0.039298072385932609
leaf_weight=41732.917945742607 22180.336669869721 31542.089180618525 85017.852646633983 2740.4521910101175 15060.455193549395 80822.518223688006 8961.5591230392456 27846.925815604627 17969.911742776632
leaf_count=86824 170411 92697 161855 8236 96808 209398 20666 197443 63674
internal_value=0.0472954 0.0576712 0.0602758 0.0488379 0.00444645 0.057296 0.0526844 0.00785569 0.0413116
internal_weight=333875 268787 207573 61214 65087.7 122555 40503.6 42907.4 20710.4
internal_count=1108012 643350 458077 185273 464662 296222 113363 294251 71910
is_linear=0
shrinkage=0.03


Tree=11
num_leaves=10
num_cat=0
split_feature=9 10 23 15 23 13 15 22 10
split_gain=147591 6332.26 3090.16 1518.73 1277.76 1077.03 1050.74 727.177 574.981
threshold=-0.58911329994368278 0.016305202301227884 0.29564004989843029 -0.39951404747567304 -0.44675051281035216 -0.36106174529722074 -0.85731508105785281 1.121486744176327 -0.57845709604763818
decision_type=2 2 2 2 2 2 2 2 2
left_child=1 4 5 -2 -1 -3 -4 -6 -5
right_child=3 2 6 8 7 -7 -8 -9 -10
leaf_value=0.063065991114164888 -0.002086251487826304 0.048199549976237571 0.03496242167833484 0.012275517973001721 0.057992230002296023 0.055642215554939693 0.046135915700249643 0.050157971384924074 0.0050215900940037642
leaf_weight=46217.88168425858 22145.506808720529 24990.454862400889 9223.6641659140587 15194.946694687009 79991.197945818305 59603.902116671205 43524.36784259975 12446.874744862318 27950.731782242656
leaf_count=78889 170411 68388 33151 96808 166375 137882 129671 28994 197443
internal_value=0.0448614 0.0544568 0.0498882 0.00429909 0.0589814 0.0534445 0.0441834 0.0569382 0.00757718
internal_weight=341290 275998 137342 65291.2 138656 84594.4 52748 92438.1 43145.7
internal_count=1108012 643350 369092 464662 274258 206270 162822 195369 294251
is_linear=0
shrinkage=0.03


Tree=12
num_leaves=10
num_cat=0
split_feature=9 15 23 15 22 23 6 23 22
split_gain=132761 5773.3 2782.25 1418.98 1230.49 1176.08 806.244 788.939 636.977
threshold=-0.58911329994368278 -0.0080406327672603497 0.11162871384240726 -0.39951404747567304 1.2483155508933101 -0.44675051281035216 1.0000000180025095e-35 -0.58846039230177127 1.121486744176327
decision_type=2 2 2 2 2 2 2 2 2
left_child=1 2 7 -2 -4 -3 -5 -1 -7
right_child=3 5 4 6 -6 8 -8 -9 -10
leaf_value=0.056371911257797426 -0.0020268070850960056 0.059714252879727682 0.044183877628628507 0.016404822270149257 0.029307115005830879 0.054875373879392536 0.0054689185829707781 0.049401572988719659 0.047613587505048745
leaf_weight=20956.808570921421 22111.697502478957 47274.794732272625 64896.800455823541 7298.9601658508182 5444.3977588415146 81774.890404358506 36077.029096126556 49595.550552293658 12692.160829305649
leaf_count=42992 170411 78777 187934 47438 19494 165955 246813 119263 28935
internal_value=0.0426456 0.0515633 0.0472601 0.00415712 0.0430333 0.0558402 0.00731015 0.0514732 0.0539005
internal_weight=348123 282635 140894 65487.7 70341.2 141742 43376 70552.4 94467.1
internal_count=1108012 643350 369683 464662 207428 273667 294251 162255 194890
is_linear=0
shrinkage=0.03


Tree=13
num_leaves=10
num_cat=0
split_feature=9 10 23 13 10 23 10 6 6
split_gain=119975 5505.74 2355.87 1631.59 1331.42 1018.9 981.084 747.602 728.845
threshold=-0.58911329994368278 0.56155993384780356 -0.16685587520789544 -1.1931310655359406 0.47690928482884293 -0.40092393486536482 -0.50798069180731065 1.0000000180025095e-35 1.0000000180025095e-35
decision_type=2 2 2 2 2 2 2 2 2
left_child=1 2 -1 8 7 -5 -4 -2 -3
right_child=4 3 6 5 -6 -7 -8 -9 -10
leaf_value=0.054589069759589028 0.015494125907692946 0.045416590438997116 0.052388875136158093 0.05107707655433022 -0.0022486786129283991 0.041125331127657976 0.046568494746873655 0.0051769438280130451 0.024729260666522316
leaf_weight=100893.40026079118 7618.5611447617412 1978.4130992740393 38114.888434156775 11720.398836731911 20818.849382594228 45116.962036281824 84001.916166648269 37241.606358662248 6913.2349049299955
leaf_count=181107 49174 5995 73867 25650 160906 128024 203103 254582 25604
internal_value=0.040618 0.0489427 0.0511926 0.0413077 0.00402016 0.0431789 0.0483858 0.00693008 0.0293402
internal_weight=354418 288739 223010 65729 65679 56837.4 122117 44860.2 8891.65
internal_count=1108012 643350 458077 185273 464662 153674 276970 303756 31599
is_linear=0
shrinkage=0.03


Tree=14
num_leaves=10
num_cat=0
split_feature=1 15 14 13 10 15 22 15 15
split_gain=108867 5068.54 1904.65 1670.79 1267.84 853.779 738.638 699.455 690.774
threshold=-0.023332433826511827 -0.39250221220643017 -0.11444881094671436 -0.43376683153167189 -0.23207316263461727 -1.0188523271936376 -1.2538905977354451 0.62753626871134294 -0.7079737924167695
decision_type=2 2 2 2 2 2 2 2 2
left_child=1 3 7 8 -2 -5 -4 -3 -1
right_child=4 2 6 5 -6 -7 -8 -9 -10
leaf_value=0.029439885209725142 0.0095831869528222296 0.043625531034852796 0.056033515800124653 0.032499526265871999 0.00084535765342420182 0.044615032309130206 0.050190187199592839 0.050181823820027192 0.038840249853836432
leaf_weight=13357.02912440896 22932.295632481575 57384.572913005948 23983.88611947 5876.6534356623888 42931.511019214988 50545.33777372539 108308.07004223764 19862.499969109893 15028.058070987463
leaf_count=44589 145774 135440 39656 17111 318887 124269 201435 37478 43373
internal_value=0.0387544 0.046556 0.0490616 0.0403644 0.00388823 0.0433543 0.0512502 0.0453124 0.034419
internal_weight=360210 294346 209539 84807.1 65863.8 56422 132292 77247.1 28385.1
internal_count=1108012 643351 414009 229342 464661 141380 241091 172918 87962
is_linear=0
shrinkage=0.03


Tree=15
num_leaves=10
num_cat=0
split_feature=9 15 14 15 10 13 23 6 13
split_gain=97651.2 4751.77 3015.93 1343.23 1004.76 971.163 785.175 505.087 391.918
threshold=-0.58911329994368278 0.21709608421652912 -0.28083454010081937 -0.17595107345105279 0.88350321274460242 -0.87807569185331857 -0.44675051281035216 1.0000000180025095e-35 -0.63976457586261726
decision_type=2 2 2 2 2 2 2 2 2
left_child=1 2 4 8 -1 -4 -3 -5 -2
right_child=3 6 5 7 -6 -7 -8 -9 -10
leaf_value=0.038137114212191556 -0.0052139945748163642 0.052488018706008971 0.037541848772483281 0.016147994101853969 0.02883205092689203 0.045482440721546426 0.047304781979910879 0.0064830312781420001 0.0019434755196489053
leaf_weight=55690.829267084599 10469.603533364832 40753.396376743913 16249.054815039039 5825.3517064601183 12914.985614940524 97837.088390320539 75785.750688508153 29753.415127255023 20101.451068997383
leaf_count=147263 82029 63223 41765 36009 42402 205469 142619 196862 149857
internal_value=0.0370904 0.0443824 0.0413611 0.00410407 0.0363863 0.0443521 0.049118 0.00806674 -0.000506837
internal_weight=365381 299231 182692 66149.8 68605.8 114086 116539 35578.8 30571.1
internal_count=1107498 642741 436899 464757 189665 247234 205842 232871 231886
is_linear=0
shrinkage=0.03


Tree=16
num_leaves=10
num_cat=0
split_feature=1 10 23 10 15 18 23 1 6
split_gain=89230.2 4449.71 2818.71 1253.91 920.249 908.046 724.636 477.391 471.526
threshold=-0.023332433826511827 -0.2434796313579676 0.29564004989843029 0.19232149048704381 -0.76731762556013416 0.87403652039584923 -0.44675051281035216 -0.022797476908946082 1.0000000180025095e-35
decision_type=2 2 2 2 2 2 2 2 2
left_child=1 6 5 7 -4 -3 -1 -2 -9
right_child=3 2 4 -5 -6 -7 -8 8 -10
leaf_value=0.050193915424263338 -0.013417172303957623 0.043369391349890006 0.027939157304453115 -0.00047559244503330908 0.036455519283638167 0.035866552304688888 0.045224219012241433 0.016288699494634764 0.0068187442793084287
leaf_weight=40943.85268625617 927.99991219490767 101734.22557973862 14578.905162185431 30687.594578005373 53652.122914671898 17037.953384757042 76000.701313242316 5660.5161567181349 29062.150799937546
leaf_count=62554 6651 210476 46851 232788 139029 43158 140672 34449 190870
internal_value=0.0354925 0.0423725 0.0395003 0.00396904 0.0346367 0.0422937 0.0469648 0.00779566 0.00836383
internal_weight=370286 303948 187003 66338.3 68231 118772 116945 35650.7 34722.7
internal_count=1107498 642740 439514 464758 185880 253634 203226 231970 225319
is_linear=0
shrinkage=0.03


Tree=17
num_leaves=10
num_cat=0
split_feature=1 10 14 10 14 10 13 14 1
split_gain=81779.4 4242.59 2177.69 1170.37 1114.24 1039.7 626.741 479.887 448.437
threshold=-0.023332433826511827 0.60488653322916497 0.27190449234332603 0.19232149048704381 -0.12149905370748192 -0.32013987665730198 -0.4458843459040806 0.77740689829033138 -0.022797476908946082
decision_type=2 2 2 2 2 2 2 2 2
left_child=1 2 5 8 6 -1 -3 -4 -2
right_child=3 4 7 -5 -6 -7 -8 -9 -10
leaf_value=0.043173574009527253 -0.013139415068177616 0.025052789589583003 0.044237961621010118 -0.00046148762462571352 0.037977315522290195 0.038046511160057292 0.033286774041665947 0.048688520876989785 0.0080653225631408913
leaf_weight=59012.357293084264 919.342419475317 13847.256220892072 59342.907356008887 30676.946764051914 29202.366379871964 90684.369801431894 21091.005209565163 35086.441830158234 34924.108226060867
leaf_count=108188 6651 45402 103391 232788 67027 207792 57502 53438 225319
internal_value=0.0340068 0.0405166 0.0423213 0.00383895 0.0336466 0.0400681 0.030025 0.0458924 0.00752026
internal_weight=374787 308267 244126 66520.4 64140.6 149697 34938.3 94429.3 35843.5
internal_count=1107498 642740 472809 464758 169931 315980 102904 156829 231970
is_linear=0
shrinkage=0.03


Tree=18
num_leaves=10
num_cat=0
split_feature=9 10 23 10 23 13 10 22 10
split_gain=75156.3 4058.53 2174.64 1111.65 966.315 788.548 712.641 503.483 443.922
threshold=-0.58911329994368278 0.016305202301227884 0.29564004989843029 -0.34445895055415188 -0.49398713930749166 -0.066202228901946172 1.0565397863574904 1.121486744176327 0.84025492080162711
decision_type=2 2 2 2 2 2 2 2 2
left_child=1 4 6 -2 -1 -4 -3 -6 -5
right_child=3 2 5 8 7 -7 -8 -9 -10
leaf_value=0.04577894060241542 0.0094540398972055954 0.03891870951782448 0.027521273597753925 0.0025559730709657932 0.041454969376840747 0.034432619122096185 0.029301150640072705 0.03543291441960638 -0.0048868855034535389
leaf_weight=47810.19059677422 20864.137740157545 88771.45376175642 30780.497219249606 36869.186542548239 93775.020743325353 28939.179457977414 7568.1829794794321 14565.236227184534 8963.2903146371245
leaf_count=72087 128540 186639 89487 265931 171897 73320 19396 29915 70286
internal_value=0.0326216 0.0387971 0.0353736 0.00371365 0.0422181 0.0308714 0.0381638 0.040646 0.00109967
internal_weight=378906 312210 156059 66696.6 156150 59719.7 96339.6 108340 45832.5
internal_count=1107498 642741 368842 464757 273899 162807 206035 201812 336217
is_linear=0
shrinkage=0.03


Tree=19
num_leaves=10
num_cat=0
split_feature=1 15 14 15 14 15 14 18 6
split_gain=69236.6 3848.21 2000.95 1035.73 976.507 834.306 621.688 547.507 427.883
threshold=-0.023332433826511827 -0.54943690109488841 0.072382622213614953 -0.17595107345105279 -0.12149905370748192 0.2966280894711289 0.77740689829033138 1.3789329525795384 1.0000000180025095e-35
decision_type=2 2 2 2 2 2 2 2 2
left_child=1 4 5 -2 7 -3 -4 -1 -5
right_child=3 2 6 8 -6 -7 -8 -9 -10
leaf_value=0.028805506615140277 -0.00047757267088975006 0.034257166896889187 0.040223312312443762 0.014334515438185445 0.034736337131198336 0.039329382795436463 0.044910896909491148 0.017738426102468258 0.0055653446414440392
leaf_weight=31063.941357657313 30548.292897343636 77024.85600964725 90109.181314721704 6006.6640237271786 29763.284248441458 47342.071700945497 35866.371301069856 4646.4770225286484 30311.783419191837
leaf_count=86344 231886 176118 158342 36009 66594 85722 53497 16123 196863
internal_value=0.0313252 0.0371968 0.038891 0.00359259 0.0307179 0.0361885 0.0415585 0.0273669 0.00701685
internal_weight=382683 315816 250342 66866.7 65473.7 124367 125976 35710.4 36318.4
internal_count=1107498 642740 473679 464758 169061 261840 211839 102467 232872
is_linear=0
shrinkage=0.03


Tree=20
num_leaves=10
num_cat=0
split_feature=9 10 14 22 10 14 22 18 22
split_gain=64604.1 3760.75 1890.86 1167.68 954.639 745.071 546.661 540.469 451.587
threshold=-0.58911329994368278 0.016305202301227884 0.072382622213614953 1.1718970709406191 -0.57845709604763818 0.27190449234332603 1.2303071580302645 1.0881126076417338 1.0929512544779738
decision_type=2 2 2 2 2 2 2 2 2
left_child=1 5 3 -3 -2 8 -6 -4 -1
right_child=4 2 7 -5 6 -7 -8 -9 -10
leaf_value=0.038081848360297939 0.009628901626731896 0.031186270715558864 0.037404478353703405 0.022013580096971432 0.0022740862290895744 0.041281856726101254 -0.0081315640775189678 0.027711552426471241 0.032375187156669115
leaf_weight=75328.508534446359 16078.83999864012 82839.933567494154 56230.280711025 14751.052971154451 45879.489444307983 68874.939483121037 5041.4689932242036 5746.8438647538424 15116.714565292001
leaf_count=137327 97289 204635 107570 42340 328496 106086 39247 13980 30703
internal_value=0.0300362 0.0356627 0.0324055 0.0298003 0.00325614 0.0389246 0.00124314 0.0365066 0.0371288
internal_weight=385888 318888 159568 97591 66999.8 159320 50921 61977.1 90445.2
internal_count=1107673 642641 368525 246975 465032 274116 367743 121550 168030
is_linear=0
shrinkage=0.03


Tree=21
num_leaves=10
num_cat=0
split_feature=1 15 14 19 14 15 20 22 15
split_gain=59767.3 3579.12 1567.33 1004.58 983.828 883.571 727.142 521.417 388.411
threshold=-0.023332433826511827 -0.21824421767412799 0.23947337564379703 -0.258884928394497 0.50879264910510247 0.52831473231244208 -0.044280958173858978 1.2303071580302645 -0.82237990184323972
decision_type=2 2 2 2 2 2 2 2 2
left_child=1 2 3 -1 6 7 -3 8 -2
right_child=5 4 -4 -5 -6 -7 -8 -9 -10
leaf_value=0.024416219938396305 -0.0048043284810535035 0.036903592714664431 0.035671571705214081 0.030867137244579852 0.040174427211923817 0.0092565359724410528 0.03225121423534779 -0.007981995583855258 0.0032968705990031686
leaf_weight=37332.746864691377 6145.5664330422878 97502.963264226913 35035.530741140246 52311.675670608878 55536.464035004377 16189.802155405283 44153.095757722855 5005.304225474596 39808.58879045397
leaf_count=103826 48086 176038 68107 122979 83627 97264 88064 39211 280471
internal_value=0.0288963 0.0342672 0.0302866 0.0281813 0.0367837 0.0031511 0.0354539 0.00121068 0.00221274
internal_weight=389022 321872 124680 89644.4 197193 67149.3 141656 50959.5 45954.2
internal_count=1107673 642641 294912 226805 347729 465032 264102 367768 328557
is_linear=0
shrinkage=0.03


Tree=22
num_leaves=10
num_cat=0
split_feature=1 10 23 22 10 23 13 22 20
split_gain=55392.9 3456.2 1695.62 1039.08 830.274 700.24 496.671 487.149 407.146
threshold=-0.023332433826511827 0.016305202301227884 -0.068152476557155103 1.1718970709406191 -0.57845709604763818 -0.28318488076055326 -1.0881126076417333 1.2303071580302645 -0.098993058758694658
decision_type=2 2 2 2 2 2 2 2 2
left_child=1 5 6 -4 -2 -1 -3 -6 -7
right_child=4 2 3 -5 7 8 -8 -9 -10
leaf_value=0.038365737356003682 0.008947729976484315 0.025388686054807381 0.028711572832134741 0.020123478387721702 0.0021313534231532749 0.035891435562053826 0.034551399335204833 -0.0077421244370445303 0.031765672738594944
leaf_weight=68736.776192203164 16283.196597404778 5911.2554609328508 84275.267026886344 14968.832489058375 46026.981237918139 58575.74668379128 57602.344665035605 4982.5984326153994 34512.584649920464
leaf_count=104288 97289 14107 203933 42208 328496 103431 108277 39247 66397
internal_value=0.0278217 0.0329574 0.0298689 0.0274168 0.00304969 0.0360633 0.0336995 0.00116619 0.0343625
internal_weight=391876 324583 162758 99244.1 67292.8 161825 63513.6 51009.6 93088.3
internal_count=1107673 642641 368525 246141 465032 274116 122384 367743 169828
is_linear=0
shrinkage=0.03


Tree=23
num_leaves=10
num_cat=0
split_feature=9 10 23 22 15 23 6 15 22
split_gain=51425.1 3302.75 1600.3 960.443 797.438 684.746 592.142 461.876 421.558
threshold=-0.58911329994368278 0.016305202301227884 -0.068152476557155103 1.1902417111773396 -0.56851610465884439 -0.41854954176728271 1.0000000180025095e-35 -1.0188523271936376 1.0661351174561622
decision_type=2 2 2 2 2 2 2 2 2
left_child=1 5 7 -4 -2 -1 -6 -3 -7
right_child=4 2 3 -5 6 8 -8 -9 -10
leaf_value=0.037436866785601187 -0.0029632619597464304 0.02121809086360835 0.027493066726052718 0.018782111751343037 0.011713358505907495 0.034266204310268451 0.0032693573010622199 0.033010812240243936 0.029481287374489535
leaf_weight=56282.684573873878 15722.787246800959 3166.3573111146688 87003.255236297846 13146.471656724811 9068.1976061090827 85845.52110016346 42641.339940547943 60848.83043757081 20743.060084104538
leaf_count=83236 122360 7624 208783 37357 56852 150741 285820 114761 40139
internal_value=0.0268066 0.0317252 0.0287206 0.0263501 0.00295181 0.0347533 0.00475094 0.0324283 0.0333356
internal_weight=394469 327036 164165 100150 67432.3 162871 51709.5 64015.2 106589
internal_count=1107673 642641 368525 246140 465032 274116 342672 122385 190880
is_linear=0
shrinkage=0.03


Tree=24
num_leaves=10
num_cat=0
split_feature=1 15 18 14 15 14 15 6 6
split_gain=47814.8 3192.94 1308.06 1241.18 871.625 791.507 752.443 721.479 426.133
threshold=-0.023332433826511827 -0.39250221220643017 0.91846740642801372 0.55955439698262588 0.52831473231244208 0.39880886203713489 0.52831473231244208 1.0000000180025095e-35 1.0000000180025095e-35
decision_type=2 2 2 2 2 2 2 2 2
left_child=1 2 5 4 -3 -1 8 -4 -2
right_child=6 3 7 -5 -6 -7 -8 -9 -10
leaf_value=0.026086248681230866 0.0066194577457070122 0.029729362261907758 0.029753600807852727 0.036326386153185161 0.0342165889141215 0.033476808267272604 0.0084408534885375523 0.015620223330908801 -0.00028735383831534456
leaf_weight=60827.936213284731 9989.0526327863336 117906.79808694124 4207.8482080698013 56715.243255332112 58500.84469397366 16672.390840277076 16437.26953625679 14422.271963149309 41141.967882610857
leaf_count=144004 69064 232937 10703 84464 96523 30722 97264 43288 298704
internal_value=0.0258456 0.0305631 0.0259601 0.0324609 0.0312178 0.027677 0.0028572 0.0188155 0.00106149
internal_weight=396822 329253 96130.4 233123 176408 77500.3 67568.3 18630.1 51131
internal_count=1107673 642641 228717 413924 329460 174726 465032 53991 367768
is_linear=0
shrinkage=0.03


Tree=25
num_leaves=10
num_cat=0
split_feature=9 23 22 22 20 23 6 22 1
split_gain=45176.2 2865.17 1016.11 912.893 747.953 721.877 506.032 405.019 361.837
threshold=-0.58911329994368278 0.12572919936394161 1.1902417111773396 -1.2538905977354451 -0.22928789614078127 -0.58846039230177127 1.0000000180025095e-35 1.1427378566784621 -0.021992903833064455
decision_type=2 2 2 2 2 2 2 2 2
left_child=1 3 4 -1 -3 -5 8 -8 -2
right_child=6 2 -4 5 -6 -7 7 -9 -10
leaf_value=0.036507481585368665 -0.0011149662928648034 0.030927901381212319 0.018972660530286165 0.033802772332244636 0.02568105636699641 0.029550679300408868 0.0026019195883172043 -0.0041529917474534758 0.010895605186223895
leaf_weight=32206.304219633341 2942.2260309532285 34023.727047324181 15467.739649266005 54137.841854438186 88009.302020192146 108247.83078250289 45436.406159311533 9689.2783496007323 9635.1965703517199
leaf_count=49876 21757 66604 40590 85752 197767 202838 310785 71580 61084
internal_value=0.024989 0.0295423 0.0262255 0.0318857 0.0271444 0.0309687 0.00265363 0.00141403 0.00808373
internal_weight=399796 332093 137501 194592 122033 162386 67703.1 55125.7 12577.4
internal_count=1108633 643427 304961 338466 264371 288590 465206 382365 82841
is_linear=0
shrinkage=0.03


Tree=26
num_leaves=10
num_cat=0
split_feature=1 10 13 23 6 10 14 6 21
split_gain=42106.5 3328.34 1376.03 1039.3 763.862 716.325 682.276 410.11 369.424
threshold=-0.023332433826511827 0.050106337987309547 -1.0557992359819772 -0.49398713930749166 1.0000000180025095e-35 0.34136662962550718 -0.17296582586108178 1.0000000180025095e-35 0.032010448784579738
decision_type=2 2 2 2 2 2 2 2 2
left_child=1 6 4 -4 -3 7 -1 -2 -8
right_child=5 2 3 -5 -6 -7 8 -9 -10
leaf_value=0.028588336065790823 0.011475887254941235 0.029015615269454471 0.031887737956964556 0.02529278490773397 0.015939925697936303 -0.0013845202976008439 0.03338611697657197 0.0036255739226283409 0.028631977963049338
leaf_weight=53310.080046981573 7234.2987230047584 5133.804973334074 26702.940582171082 111892.36982785165 18720.312184616923 25640.798044487834 100758.00712805986 34952.090215213597 17408.249165639281
leaf_count=98302 42621 12042 46110 248481 51795 196126 156398 226459 30299
internal_value=0.0241192 0.0284964 0.0254177 0.0265639 0.0187564 0.00256906 0.0314126 0.00497273 0.0326862
internal_weight=401753 333926 162449 138595 23854.1 67827.2 171476 42186.4 118166
internal_count=1108633 643427 358428 294591 63837 465206 284999 269080 186697
is_linear=0
shrinkage=0.03


Tree=27
num_leaves=10
num_cat=0
split_feature=9 10 10 13 18 15 15 22 6
split_gain=39296.2 3237.55 1331.36 864.587 742.907 678.862 574.07 421.5 404.596
threshold=-0.58911329994368278 0.61902805073603073 -0.2434796313579676 -1.1931310655359406 -0.12363882959912105 -0.30627201246150854 -1.0188523271936376 -1.2481444345156303 1.0000000180025095e-35
decision_type=2 2 2 2 2 2 2 2 2
left_child=1 2 7 8 -4 -2 -5 -1 -3
right_child=5 3 4 6 -6 -7 -8 -9 -10
leaf_value=0.034628369573256962 -0.0013565331313205391 0.024800057745342292 0.029153011110420891 0.01578238618061447 0.024766137663960786 0.0048263415436556861 0.024246814707969626 0.030339343674779615 0.009916084966911879
leaf_weight=26133.089447230101 25697.04514823854 2124.25069886446 70142.913730889559 8442.5060856491327 69319.44372344017 42246.76729811728 50693.622231915593 101343.48012776673 7339.6825575977564
leaf_count=38700 196716 5475 130313 21822 144250 268490 114558 165153 23156
internal_value=0.0232936 0.0275066 0.0290009 0.021691 0.0269729 0.00248749 0.0230392 0.0312191 0.0132623
internal_weight=403483 335539 266939 68600.1 139462 67943.8 59136.1 127477 9463.93
internal_count=1108633 643427 478416 165011 274563 465206 136380 203853 28631
is_linear=0
shrinkage=0.03


Tree=28
num_leaves=10
num_cat=0
split_feature=9 15 14 23 15 15 15 1 15
split_gain=36711.3 3068.88 1281.98 686.033 651.212 636.106 542.008 399.61 398.859
threshold=-0.58911329994368278 -0.038701729379563767 -0.35979725902141185 -0.45591582839934885 -1.0188523271936376 -0.30627201246150854 -0.7079737924167695 -0.022956148655263298 0.73436309987300674
decision_type=2 2 2 2 2 2 2 2 2
left_child=1 2 6 -3 -4 -2 -1 -7 -5
right_child=5 3 4 8 -6 7 -8 -9 -10
leaf_value=0.015792881250788215 -0.0013171649583299373 0.032129570639255617 0.015862625082944202 0.026813746396669863 0.02614538346919807 -0.016236558839615469 0.022030155623075701 0.0050721622813564458 0.030530923574616613
leaf_weight=18540.913793623447 25671.563970811665 55128.439899891615 5886.8783886432648 77854.489887103438 101053.57203766704 805.86133036017418 39124.14503659308 41580.043524704874 39393.941103711724
leaf_count=51829 196716 79891 14485 141234 200621 5822 91971 262668 63396
internal_value=0.0225065 0.0265654 0.0236343 0.029364 0.0255798 0.00240867 0.0200255 0.00466595 0.0280632
internal_weight=405040 336982 164606 172377 106940 68057.5 57665.1 42385.9 117248
internal_count=1108633 643427 358906 284521 215106 465206 143800 268490 204630
is_linear=0
shrinkage=0.03


Tree=29
num_leaves=10
num_cat=0
split_feature=9 15 23 13 15 15 15 6 13
split_gain=34332.9 2948.78 1451.36 803.277 791.509 602.807 484.398 380.854 320.124
threshold=-0.58911329994368278 -0.56227913879722924 -0.38329832796344687 -1.1931310655359406 0.46498706111869864 0.19832755686274775 -1.0188523271936376 1.0000000180025095e-35 -0.66399960460743457
decision_type=2 2 2 2 2 2 2 2 2
left_child=1 3 -3 7 -4 8 -5 -1 -2
right_child=5 2 4 6 -6 -7 -8 -9 -10
leaf_value=0.023158613980132831 -0.0036014538770806838 0.030309566879832554 0.024261521503565635 0.014822675558206147 0.028534645098088094 0.006039921534753372 0.022543514167956805 0.0087892278156672787 0.0019477449827122139
leaf_weight=2147.8923294693232 13707.731607869267 85866.545030027628 126886.7873364538 8582.0642923563719 56582.262227341533 24995.63986735791 50805.080276146531 7378.4327316135168 29463.885289877653
leaf_count=5448 104498 130934 255294 21943 93245 149084 113522 23041 211624
internal_value=0.0217562 0.0256705 0.0270878 0.0201306 0.0255797 0.00233241 0.0214285 0.0120343 0.000185041
internal_weight=406416 338249 269336 68913.5 183469 68167.3 59387.1 9526.33 43171.6
internal_count=1108633 643427 479473 163954 348539 465206 135465 28489 316122
is_linear=0
shrinkage=0.03


Tree=30
num_leaves=10
num_cat=0
split_feature=9 10 23 23 22 10 15 6 6
split_gain=31812.7 2869.26 1137.68 843.2 823.349 562.674 410.012 385.197 338.206
threshold=-0.58911329994368278 0.10644281655149494 -0.40092393486536482 -0.16685587520789544 1.2483155508933101 -0.96653982797564308 -0.80717445870960736 -1.5707973238884452 -1.5707973238884452
decision_type=2 2 2 2 2 2 2 2 2
left_child=1 3 -3 -1 -4 -2 -7 -5 -8
right_child=5 2 4 7 -6 6 8 -9 -10
leaf_value=0.029414777816082795 0.0087033749280874262 0.026698070196931576 0.021114578045220805 0.032986648709363194 0.011587803324960136 -0.0054132732284234465 0.011628605668370977 0.024840305213171432 0.0014646719020552179
leaf_weight=88139.384779945016 10404.469767011702 33172.426394894719 114470.01896187663 5587.4560821056366 8811.6539863497019 7509.0788290351629 3143.458720728755 88496.324408262968 47111.555147819221
leaf_count=133027 59956 59095 257009 8871 24833 59692 20056 160163 324840
internal_value=0.0209803 0.0247439 0.0217625 0.0273034 0.020434 0.0022812 0.00112379 0.0253248 0.00210124
internal_weight=406846 338677 156454 182223 123282 68168.6 57764.1 94083.8 50255
internal_count=1107542 642998 340937 302061 281842 464544 404588 169034 344896
is_linear=0
shrinkage=0.03


Tree=31
num_leaves=10
num_cat=0
split_feature=9 15 23 13 15 10 23 18 15
split_gain=29802.1 2774.43 1349.65 692.371 621.106 525.146 475.003 407.148 386.45
threshold=-0.58911329994368278 -0.53584274131145049 -0.21127240460072835 -1.1931310655359406 0.58426145196797374 -0.96653982797564308 -0.3318315558098468 -0.12363882959912105 -0.80717445870960736
decision_type=2 2 2 2 2 2 2 2 2
left_child=1 3 7 -1 -4 -2 -5 -3 -7
right_child=5 2 4 6 -6 8 -8 -9 -10
leaf_value=0.011529101379677369 0.0083935238036835936 0.029475823025905498 0.02245757873484043 0.024674098387491312 0.026841220238435645 -0.00527224573633721 0.018539819654221853 0.02577578132705936 0.0020351367239960583
leaf_weight=10182.016138330102 10464.007888808846 63469.949933305383 116066.61301706731 14835.418353319168 39000.261447578669 7479.1302082836628 49278.956889510155 46821.30867613852 50328.749209061265
leaf_count=29886 59956 95152 232700 27808 64050 59692 116708 76694 344896
internal_value=0.0202961 0.0239315 0.0253666 0.0188052 0.0235605 0.00220921 0.0199601 0.0279056 0.00108912
internal_weight=407926 339655 265358 74296.4 155067 68271.9 64114.4 110291 57807.9
internal_count=1107542 642998 468596 174402 296750 464544 144516 171846 404588
is_linear=0
shrinkage=0.03


Tree=32
num_leaves=10
num_cat=0
split_feature=1 10 14 14 22 10 22 1 10
split_gain=27941.7 2683.54 1023.76 804.446 785.324 493.701 371.622 351.674 302.794
threshold=-0.023332433826511827 0.10644281655149494 0.39880886203713489 -0.17296582586108178 -1.1436857627528814 0.62610606893819754 -1.2481444345156303 -0.022823709591108344 -0.96653982797564308
decision_type=2 2 2 2 2 2 2 2 2
left_child=1 3 4 -1 -3 7 -5 -2 -9
right_child=5 2 -4 6 -6 -7 -8 8 -10
leaf_value=0.022695079444942149 -0.010364693854434961 0.024169799381938306 0.024948346759046936 0.030314955902865062 0.017922386648237219 -0.0025356635530564588 0.026175420184871522 0.0085369915385330279 0.0027950831624610705
leaf_weight=57675.51225912571 1588.0072029680014 22064.090739175677 33471.055456161499 24423.862359061837 102207.59167709947 15663.678960330784 100650.64181640744 10380.518631443381 40740.133538298309
leaf_count=105708 11549 45695 59330 35364 235912 122486 160988 58984 271526
internal_value=0.0196413 0.0231557 0.0202877 0.0256309 0.019032 0.00213946 0.0269842 0.00352938 0.00396176
internal_weight=408865 340493 157743 182750 124272 68372.3 125075 52708.7 51120.7
internal_count=1107542 642997 340937 302060 281607 464545 196352 342059 330510
is_linear=0
shrinkage=0.03


Tree=33
num_leaves=10
num_cat=0
split_feature=9 10 14 15 19 6 10 10 6
split_gain=26211.4 2587.84 1254.62 927.445 622.354 522.361 471.1 461.603 409.737
threshold=-0.58911329994368278 0.56155993384780356 0.69139393660897219 0.58426145196797374 -1.3560761548547489 -1.5707973238884452 0.9001862384704985 1.1682616512915613 1.0000000180025095e-35
decision_type=2 2 2 2 2 2 2 2 2
left_child=1 2 3 -1 5 -3 8 -6 -2
right_child=6 4 -4 -5 7 -7 -8 -9 -10
leaf_value=0.021667021584628021 0.0081060705810118063 0.031687920073981732 0.02837810344326577 0.026048130850706269 0.01934440941724215 0.0072271695379832737 -0.0052057625057445722 0.01095152384314812 0.0017616852070907716
leaf_weight=154929.95818729699 11218.249321378767 880.44258196651936 45674.837794095278 60647.146735325456 65254.898769780993 7333.7426443397999 7162.9726281017065 6507.8366713225842 50086.902247071266
leaf_count=295419 70296 1895 66195 96258 144450 22105 57549 16676 336699
internal_value=0.0190128 0.0224119 0.0238578 0.0228998 0.017688 0.0098562 0.00207231 0.0185839 0.00292325
internal_weight=409697 341229 261252 215577 79976.9 8214.19 68468.1 71762.7 61305.2
internal_count=1107542 642998 457872 391677 185126 24000 464544 161126 406995
is_linear=0
shrinkage=0.03


Tree=34
num_leaves=10
num_cat=0
split_feature=9 10 10 18 18 15 10 18 6
split_gain=24606 2510.22 1031.55 590.08 535.488 525.931 453.037 395.083 348.462
threshold=-0.58911329994368278 0.050106337987309547 0.78461612143210757 -0.22865728749332861 1.3627762667496601 0.58426145196797374 -0.96653982797564308 0.094476429104232817 -2.7513323972778276
decision_type=2 2 2 2 2 2 2 2 2
left_child=1 5 3 -3 -4 7 -2 -1 -8
right_child=6 2 4 -5 -6 -7 8 -9 -10
leaf_value=0.024259972027889549 0.0077108435891102981 0.022838215951520861 0.01641314695121877 0.018639120440505079 0.0061603410454604147 0.026038071254391035 0.014650581677391122 0.020265463084418435 0.00056801126480990392
leaf_weight=57928.671494618058 10596.684833198786 55029.859347492456 41030.10568317771 66992.321281567216 5174.2256437391043 79165.191077366471 1626.3516002893448 36527.500049412251 56340.579249665141
leaf_count=96419 59956 104320 95193 143025 15878 121796 10401 66367 394187
internal_value=0.0184099 0.0216996 0.0190868 0.0205333 0.0152658 0.0242309 0.00200718 0.0227158 0.000963883
internal_weight=410411 341848 168227 122022 46204.3 173621 68563.6 94456.2 57966.9
internal_count=1107542 642998 358416 247345 111071 284582 464544 162786 404588
is_linear=0
shrinkage=0.03


Tree=35
num_leaves=10
num_cat=0
split_feature=1 10 14 14 10 10 6 9 6
split_gain=22233.8 2369.81 1172.9 647.223 501.97 494.542 491.213 431.652 411.799
threshold=-0.023332433826511827 0.016305202301227884 -0.32102092383719211 0.50879264910510247 0.98739279770780974 0.78461612143210757 -1.5707973238884452 -0.48026674167356859 1.0000000180025095e-35
decision_type=2 2 2 2 2 2 2 2 2
left_child=1 3 6 8 -4 7 -3 -2 -1
right_child=5 2 4 -5 -6 -7 -8 -9 -10
leaf_value=0.026111301179380143 -0.012922512719809794 0.024060738899019725 0.021186025124172052 0.026468539823241481 0.014696161429008899 -0.003691877187706027 0.014597868484563431 0.0038023892563522135 0.021524465020372464
leaf_weight=21629.36366070807 1421.8179553747177 5393.7077440023422 96741.730107396841 48731.298578679562 12112.320055514574 10445.735106319189 60045.228908881545 56957.433785803616 97507.895408138633
leaf_count=34769 10504 11542 184451 70199 27478 82909 145138 371370 169176
internal_value=0.017877 0.0210065 0.0185551 0.0235514 0.0204643 0.00231836 0.0153786 0.00339433 0.0223577
internal_weight=410987 342162 174293 167869 108854 68825 65438.9 58379.3 119137
internal_count=1107536 642753 368609 274144 211929 464783 156680 381874 203945
is_linear=0
shrinkage=0.03


Tree=36
num_leaves=10
num_cat=0
split_feature=9 15 14 22 14 15 15 22 9
split_gain=20900.2 2288.49 1265.26 640.42 537.886 474.223 403.851 369.201 285.536
threshold=-0.58911329994368278 0.15254928599931888 -0.42254441959223915 1.1718970709406191 0.50879264910510247 0.31865768491432367 -0.90426175699990685 1.2180279720963358 -0.46971158679192149
decision_type=2 2 2 2 2 2 2 2 2
left_child=1 2 6 -4 -3 7 -1 -2 -7
right_child=5 4 3 -5 -6 8 -8 -9 -10
leaf_value=0.0084187510501853406 0.0014807443604348903 0.022074666365923833 0.020650163778287326 0.014634145343875329 0.026132025803168459 -0.019050040377440871 0.015650886545431703 -0.0069330623305496747 0.0063114487823734289
leaf_weight=8022.4503019154072 41372.205126389861 97626.879819229245 123174.88918861747 18346.931445538998 42323.28991445899 405.46041144430637 53092.882358029485 5292.8361853584647 21861.676153242588
leaf_count=22539 294633 164015 233944 40004 60452 2774 121800 41787 125588
internal_value=0.017318 0.0203506 0.018312 0.0198706 0.0233021 0.00224526 0.0147022 0.000525664 0.00584746
internal_weight=411520 342587 202637 141522 139950 68932.2 61115.3 46665 22267.1
internal_count=1107536 642754 418287 273948 224467 464782 144339 336420 128362
is_linear=0
shrinkage=0.03


Tree=37
num_leaves=10
num_cat=0
split_feature=1 10 13 6 15 20 10 13 18
split_gain=19656 2208.11 1017.64 896.322 587.717 495.557 455.761 366.805 362.829
threshold=-0.023332433826511827 0.016305202301227884 -0.49435440339371467 1.0000000180025095e-35 -1.0188523271936376 0.0048421148730348543 -0.57845709604763818 0.22057894457838942 -0.3781066314197003
decision_type=2 2 2 2 2 2 2 2 2
left_child=1 5 3 -3 -4 8 -2 -8 -1
right_child=6 2 4 -5 -6 -7 7 -9 -10
leaf_value=0.024810136312347995 0.0063891171178580026 0.021090997021349325 0.010520357569306905 0.011820715500845179 0.019405526554434321 0.018955582853493792 -0.0012701626839320707 0.0039004424538704391 0.021642796057297374
leaf_weight=57538.085565268993 17303.20682451129 12147.969730749726 7137.3483648598194 41519.244796827435 114356.86450834572 34262.829672455788 31375.653216376901 20355.134460285306 75966.28400413692
leaf_count=88271 97908 25779 17376 100953 224501 60499 226765 140110 125374
internal_value=0.0167801 0.0197203 0.0173633 0.01392 0.0188839 0.0221809 0.0021743 0.000763834 0.0230083
internal_weight=411963 342929 175161 53667.2 121494 167767 69034 51730.8 133504
internal_count=1107536 642753 368609 126732 241877 274144 464783 366875 213645
is_linear=0
shrinkage=0.03


Tree=38
num_leaves=10
num_cat=0
split_feature=1 10 23 23 6 10 23 9 6
split_gain=18492 2141.66 1283.06 582.175 456.71 446.734 439.058 396.265 317.967
threshold=-0.023332433826511827 -0.2434796313579676 0.35556711336495161 -0.81970835485493454 -1.5707973238884452 0.78461612143210757 -0.38329832796344687 -0.48026674167356859 1.0000000180025095e-35
decision_type=2 2 2 2 2 2 2 2 2
left_child=1 6 3 -3 -4 7 -1 -2 -9
right_child=5 2 4 -5 -6 -7 -8 8 -10
leaf_value=0.024460581921245204 -0.012598839560879578 0.023984440035698589 0.022117270992880453 0.018209255651750935 0.013336424508427423 -0.0036157289534898161 0.020822303666160915 0.0082787485054513499 0.0024607325454721741
leaf_weight=48046.087630391121 1406.5914894416928 18032.083512678742 5807.9249078184366 124676.05472740531 66846.49534741044 10423.932823441923 79795.773267909884 10318.004140302539 46984.564726442099
leaf_count=69733 10504 28757 12057 241931 156383 82909 133892 62653 308717
internal_value=0.0162618 0.0191131 0.0172864 0.0189394 0.0140391 0.0021059 0.0221901 0.00312234 0.00350898
internal_weight=412338 343204 215363 142708 72654.4 69133.1 127842 58709.2 57302.6
internal_count=1107536 642753 439128 270688 168440 464783 203625 381874 371370
is_linear=0
shrinkage=0.03


Tree=39
num_leaves=10
num_cat=0
split_feature=1 10 14 22 18 10 10 9 22
split_gain=17405.6 2108.26 1091.03 667.494 608.732 421.698 419.893 374.546 310.675
threshold=-0.023332433826511827 0.51211784951148442 0.55955439698262588 1.1571450089603659 0.21969074428578766 1.2442234801172269 0.78461612143210757 -0.48026674167356859 1.1427378566784621
decision_type=2 2 2 2 2 2 2 2 2
left_child=1 2 3 -1 5 -3 7 -2 -9
right_child=6 4 -4 -5 -6 -7 -8 8 -10
leaf_value=0.019482548862471923 -0.012332765905696914 0.01722212654314401 0.023513539354326093 0.013983125939201103 0.011622828133972887 0.0041868804284776939 -0.0035168063936372781 0.004363500971073863 -0.0016314286753122992
leaf_weight=172207.29029195011 1394.0439101159573 50561.008556455374 58798.152187153697 22515.199081197381 36968.315073996782 2344.0513342320919 10396.08663225919 48169.312364265323 9270.0068553686142
leaf_count=307324 10504 104396 87483 45726 91786 6038 82909 306996 64374
internal_value=0.0157629 0.0185295 0.0199294 0.0188469 0.0145798 0.0166452 0.00203967 0.00302207 0.00339546
internal_weight=412623 343394 253521 194722 89873.4 52905.1 69229.4 58833.4 57439.3
internal_count=1107536 642753 440533 353050 202220 110434 464783 381874 371370
is_linear=0
shrinkage=0.03


Tree=40
num_leaves=10
num_cat=0
split_feature=9 14 15 6 22 13 15 13 15
split_gain=16614.4 2187.83 1281.55 569.03 517.063 516.335 503.167 390.15 354.614
threshold=-0.58911329994368278 0.18448148210981316 -0.47644944461986688 1.0000000180025095e-35 -1.2422766844016684 0.063051257737078426 0.51639785770777413 0.22057894457838942 -0.80717445870960736
decision_type=2 2 2 2 2 2 2 2 2
left_child=1 2 5 -4 -3 -1 7 -2 -6
right_child=6 4 3 -5 8 -7 -8 -9 -10
leaf_value=0.0098805932266759402 -0.001756749990659393 0.02491688133903654 0.021425220761466197 0.016658231788370007 0.01388545498280306 0.015345498441733583 0.0062174694737685702 0.0035820341952826971 0.020534121681099582
leaf_weight=33309.731690600514 31214.113445959985 24180.430620282888 27964.83886423707 117695.16761988401 7805.3694117218256 29304.934045955539 17659.993902333081 20348.231227435172 102961.12432678044
leaf_count=85267 226030 35548 49507 223546 16246 64064 98961 139452 168033
internal_value=0.015255 0.0179591 0.0160303 0.0175738 0.0209356 0.012439 0.00184708 0.00034956 0.020066
internal_weight=412444 343222 208275 145660 134947 62614.7 69222.3 51562.3 110766
internal_count=1106654 642211 422384 273053 219827 149331 464443 365482 184279
is_linear=0
shrinkage=0.03


Tree=41
num_leaves=10
num_cat=0
split_feature=9 23 10 10 10 18 22 22 18
split_gain=15646.9 2111.81 869.109 783.808 475.846 465.917 449.258 375.128 343.534
threshold=-0.58911329994368278 0.11867895660317483 0.60488653322916497 -0.30983380962070289 -0.67319562934701926 0.47819771756383661 -1.1436857627528814 1.2219815736901685 -0.21653977312092026
decision_type=2 2 2 2 2 2 2 2 2
left_child=1 3 6 -1 -2 -5 -3 -4 -6
right_child=4 2 7 5 8 -7 -8 -9 -10
leaf_value=0.021737732645637105 0.0064037025925231536 0.019827654163554472 0.012063825462064954 0.018979408494877406 0.0033995516595344993 0.014601228831111424 0.01509510204361111 0.0032918162826892083 -0.0015011445491438886
leaf_weight=80061.03862388432 15589.232762493193 23232.761464238167 36353.825936943293 87233.039265617728 21387.455153241754 29326.334890156984 82073.872166052461 5001.907680734992 32328.449794247746
leaf_count=122430 86697 41874 88067 153226 145208 58900 162933 14781 232538
internal_value=0.0147922 0.0174172 0.0146917 0.01945 0.00178938 0.0178783 0.0161397 0.0110037 0.000449579
internal_weight=412588 343283 146662 196620 69305.1 116559 105307 41355.7 53715.9
internal_count=1106654 642211 307655 334556 464443 212126 204807 102848 377746
is_linear=0
shrinkage=0.03


Tree=42
num_leaves=10
num_cat=0
split_feature=1 14 10 6 22 18 6 10 10
split_gain=14739.9 2037.59 1182.61 535.096 489.883 475.995 460.83 353.286 345.544
threshold=-0.023332433826511827 0.18448148210981316 0.53334932741278818 1.0000000180025095e-35 -1.2422766844016684 0.21969074428578766 1.0000000180025095e-35 0.89232415947245214 0.90878867208407721
decision_type=2 2 2 2 2 2 2 2 2
left_child=1 2 3 -1 -3 -4 -2 -8 -6
right_child=6 4 5 -5 8 -7 7 -9 -10
leaf_value=0.020233676404545969 0.0068203796640267057 0.023657343107704117 0.013908976986888113 0.015624628849161498 0.019372646773523943 0.0086206425026845879 0.001350710267081542 -0.0065618529815299588 0.012590163718329333
leaf_weight=28131.712439373136 13021.51224604249 24080.571665868163 34699.740552961826 118343.22871543467 103240.90682704747 27518.238800421357 50721.708669751883 5641.8762394189835 7270.2326823174953
leaf_count=49781 82470 35548 76212 224686 169092 71706 335823 46148 15188
internal_value=0.0143457 0.0168947 0.0150378 0.0165102 0.0197736 0.0115707 0.00173381 0.000558045 0.0189268
internal_weight=412670 343285 208693 146475 134592 62218 69385.1 56363.6 110511
internal_count=1106654 642213 422385 274467 219828 147918 464441 381971 184280
is_linear=0
shrinkage=0.03


Tree=43
num_leaves=10
num_cat=0
split_feature=9 10 23 23 13 10 22 22 13
split_gain=13890.7 1964.06 978.163 567.253 470.014 441.841 353.68 334.744 323.497
threshold=-0.58911329994368278 0.041444427249298414 0.36896257461040888 -0.38329832796344687 -0.86191900602344051 -0.67319562934701926 -1.1436857627528814 -1.1656337256099965 0.22057894457838942
decision_type=2 2 2 2 2 2 2 2 2
left_child=1 3 4 -1 -3 -2 -4 -5 -7
right_child=5 2 6 7 -6 8 -8 -9 -10
leaf_value=0.021009483158798397 0.0061116652368267653 0.011315085243073788 0.016015902680948525 0.020411333295836297 0.016630923319252432 -0.0015028124539799785 0.0099736283977045915 0.016482884048654653 0.0032503390588004217
leaf_weight=60425.856216266751 15674.721220083535 17853.251248642802 10611.604202866554 25485.199333891273 94297.64196112752 32394.97040091455 49537.250753954053 85026.547361582518 21395.763644263148
leaf_count=90138 86697 40279 22835 41527 177970 233000 119244 150218 144746
internal_value=0.0139142 0.0163903 0.014129 0.0186693 0.0157851 0.00167946 0.0110404 0.0173893 0.000387265
internal_weight=412703 343237 172300 170938 112151 69465.5 60148.9 110512 53790.7
internal_count=1106654 642211 360328 281883 218249 464443 142079 191745 377746
is_linear=0
shrinkage=0.03


Tree=44
num_leaves=10
num_cat=0
split_feature=9 23 10 10 15 6 13 22 15
split_gain=13093.2 1898.31 754.255 748.466 436.666 431.565 415.802 347.02 336.78
threshold=-0.58911329994368278 0.12572919936394161 0.60488653322916497 -0.30983380962070289 0.68801902746108867 1.0000000180025095e-35 -0.84980149165103203 1.205867936386569 -0.80717445870960736
decision_type=2 2 2 2 2 2 2 2 2
left_child=1 3 4 -1 -3 -2 -5 -4 -7
right_child=5 2 7 6 -6 8 -8 -9 -10
leaf_value=0.020061912121472153 0.0065340780591940156 0.013718570748713596 0.010968385426803737 0.012011752747056346 0.01866082941432692 -0.0063959589581342145 0.017040920470128357 0.0029721650382572196 0.0012686763012135125
leaf_weight=79948.743880391121 13093.968142300844 84426.32416857779 35642.137201204896 17429.606725037098 19944.974777266383 5742.3400638177991 100070.36839282513 5673.7698686420918 50704.263165265322
leaf_count=123169 82470 169935 85703 36303 32831 47060 177845 16425 334913
internal_value=0.0134978 0.0159034 0.0133047 0.0178207 0.0146635 0.0016272 0.0162953 0.00987112 0.000488318
internal_weight=412676 343136 145687 197449 104371 69540.6 117500 41315.9 56446.6
internal_count=1106654 642211 304894 337317 202766 464443 214148 102128 381973
is_linear=0
shrinkage=0.03


Tree=45
num_leaves=10
num_cat=0
split_feature=9 23 22 6 22 23 6 19 1
split_gain=12813.4 1777.94 794.391 744.237 733.589 595.543 323.265 270.454 247.761
threshold=-0.58468000245731966 0.11867895660317483 -1.2538905977354451 -1.5707973238884452 1.160833964251615 -0.81970835485493454 1.0000000180025095e-35 0.78405511843672715 -0.020024779500873773
decision_type=2 2 2 2 2 2 2 2 2
left_child=1 2 -1 -3 -5 -4 8 -8 -2
right_child=6 3 5 4 -6 -7 7 -9 -10
leaf_value=0.021617499086398557 0.0018641873963353454 0.020481954606270947 0.020286363721130646 0.013249484938347766 0.0069898917670526989 0.015605442059291076 -0.00082973317287122778 0.0040432829770969091 0.010159209845601577
leaf_weight=32275.436117947102 7294.6062713637948 10941.196982681751 30019.241994656622 116667.32675553113 19724.696895495057 133813.65963158756 42955.46058344841 13460.48803114146 5846.8857964500785
leaf_count=49456 50288 20594 46229 239808 47518 239834 294238 87610 32346
internal_value=0.0130624 0.0154405 0.0173119 0.0129492 0.0123445 0.0164634 0.00132013 0.000332457 0.00555757
internal_weight=412999 343442 196108 147333 136392 163833 69557.4 56415.9 13141.5
internal_count=1107921 643439 335519 307920 287326 286063 464482 381848 82634
is_linear=0
shrinkage=0.03


Tree=46
num_leaves=10
num_cat=0
split_feature=9 10 23 22 10 23 6 6 22
split_gain=12077.4 1806.8 1093.32 571.663 435.167 396.221 363.493 315.363 286.863
threshold=-0.58468000245731966 -0.2434796313579676 0.45779563339607515 1.2347865560362641 0.47690928482884293 -0.53417352304386467 -1.5707973238884452 1.0000000180025095e-35 -1.2481444345156303
decision_type=2 2 2 2 2 2 2 2 2
left_child=1 5 3 -3 7 -1 -4 -2 -7
right_child=4 2 6 -5 -6 8 -8 -9 -10
leaf_value=0.020486870447163665 0.0079902015387799501 0.015115480845839222 0.01781118285041515 0.0076922216338335507 -0.0023651998573825778 0.020229877013400257 0.0091989679992460736 0.0016986655101875988 0.015931207569897139
leaf_weight=36395.964999042451 8733.5677673593163 147087.39685405046 4802.1778752505779 9991.1596052721143 20706.332973904908 17431.433595716953 55409.547134295106 40177.837747991085 72180.998703733087
leaf_count=53185 49376 277896 9851 22989 160668 27169 129161 254438 123188
internal_value=0.0126732 0.0149837 0.0133256 0.0146436 0.00127932 0.0178425 0.00988662 0.00282283 0.0167679
internal_weight=412916 343299 217290 157079 69617.7 126008 60211.7 48911.4 89612.4
internal_count=1107921 643439 439897 300885 464482 203542 139012 303814 150357
is_linear=0
shrinkage=0.03


Tree=47
num_leaves=10
num_cat=0
split_feature=9 10 14 6 10 10 13 6 13
split_gain=11387.1 1750.55 1052.19 705.331 460.45 408.991 389.078 294.289 235.628
threshold=-0.58468000245731966 0.62610606893819754 0.55955439698262588 1.0000000180025095e-35 1.2442234801172269 0.47690928482884293 -0.43376683153167189 1.0000000180025095e-35 -0.30047417343517796
decision_type=2 2 2 2 2 2 2 2 2
left_child=1 2 3 -1 6 7 -3 -2 -4
right_child=5 4 8 -5 -6 -7 -8 -9 -10
leaf_value=0.018190297867841317 0.0077100930265596055 0.0078416328686220279 0.015982096353112867 0.013796129823346952 9.5809788033560637e-05 -0.0022982940000112529 0.012602954308680811 0.0016457904423292143 0.020264210407594834
leaf_weight=40831.381627514958 8778.6684956550598 23813.907622791827 15778.605026587844 170227.58963905275 3724.3084543421865 20670.428042657673 44233.380047537386 40223.906816422939 44483.19722507894
leaf_count=71046 49376 60212 25956 317601 9941 160668 92518 254438 66165
internal_value=0.0122977 0.0145431 0.0156455 0.0146464 0.0103751 0.00123984 0.0109373 0.00273294 0.0191438
internal_weight=412765 343092 271321 211059 71771.6 69673 68047.3 49002.6 60261.8
internal_count=1107921 643439 480768 388647 162671 464482 152730 303814 92121
is_linear=0
shrinkage=0.03


Tree=48
num_leaves=10
num_cat=0
split_feature=9 15 14 15 15 22 22 23 6
split_gain=10737.5 1708.06 1018.58 557.435 380.72 368.306 345.943 299.503 270.829
threshold=-0.58468000245731966 0.22785461269735366 -0.45779563339607499 -0.91489992123960306 -0.43811382185953029 -1.2481444345156303 -1.1436857627528814 -0.53417352304386467 1.0000000180025095e-35
decision_type=2 2 2 2 2 2 2 2 2
left_child=1 2 6 -4 -2 -3 -1 -7 -6
right_child=4 5 3 -5 8 7 -8 -9 -10
leaf_value=0.013973830758076561 -0.0022402738078010167 0.020127247198269416 0.0078162264727578302 0.014318626903858149 0.0073770801839078345 0.018726444763213439 0.0081158477095065688 0.015056470960108101 0.0015865464223446995
leaf_weight=11146.215740703046 20436.074808910489 25525.69144718349 12958.374345391989 144036.01899126172 8869.7261010706425 27890.119662880898 49299.560640230775 72006.476109564304 40420.588192604482
leaf_count=23273 159091 38490 29603 271184 49731 41757 115866 123266 255660
internal_value=0.011934 0.0141165 0.0125077 0.0137822 0.00120162 0.0169053 0.00919677 0.0160816 0.00262928
internal_weight=412589 342862 217440 156994 69726.4 125422 60445.8 99896.6 49290.3
internal_count=1107921 643439 439926 300787 464482 203513 139139 165023 305391
is_linear=0
shrinkage=0.03


Tree=49
num_leaves=10
num_cat=0
split_feature=9 10 14 13 10 6 22 6 1
split_gain=10127.1 1647.65 1032.38 568.394 361.745 348.415 307.132 271.891 262.777
threshold=-0.58468000245731966 -0.34445895055415188 -0.45779563339607499 -0.30047417343517796 0.47690928482884293 -1.5707973238884452 -1.2481444345156303 -1.5707973238884452 -0.022927823547604306
decision_type=2 2 2 2 2 2 2 2 2
left_child=1 6 5 -4 8 -3 -1 -8 -2
right_child=4 2 3 -5 -6 -7 7 -9 -10
leaf_value=0.019768815397367096 -0.01284969337067759 0.01660071742304375 0.010955442505582023 0.014690937981710729 -0.0021716646767015379 0.0083278916426178535 0.0226972403138666 0.015478260723441696 0.0028754035138470755
leaf_weight=23328.957267850637 974.15054839104414 4984.0740467831492 54207.23446572572 113928.72185339034 20602.715240843594 58045.366695508361 5001.76439422369 83097.117158696055 48201.173925600946
leaf_count=35100 7136 10113 111664 208023 160668 133809 7218 137512 296678
internal_value=0.0115823 0.013704 0.012259 0.0134869 0.00116462 0.0089828 0.0167015 0.0158887 0.00256303
internal_weight=412371 342593 231165 168136 69778 63029.4 111428 88098.9 49175.3
internal_count=1107921 643439 463609 319687 464482 143922 179830 144730 303814
is_linear=0
shrinkage=0.03


Tree=50
num_leaves=10
num_cat=0
split_feature=1 15 13 6 23 22 23 6 22
split_gain=9988.09 1703.62 991.283 1120.3 501.161 332.252 318.832 275.722 212.377
threshold=-0.023332433826511827 0.2966280894711289 -0.098515600561702318 1.0000000180025095e-35 -0.69491905798935549 1.2180279720963358 -0.43688017294527765 1.0000000180025095e-35 1.1497456270097219
decision_type=2 2 2 2 2 2 2 2 2
left_child=1 2 3 -1 -4 7 -3 -2 -8
right_child=5 6 4 -5 -6 -7 8 -9 -10
leaf_value=0.01557696470833418 0.0056121550710817201 0.01853242832796121 0.018299536444563898 0.0078600486581357001 0.012847730454151489 -0.0056031457588885105 0.015716848707456117 0.00060541658279117795 0.010243399070760922
leaf_weight=21814.09187592566 12282.005582801998 39688.351785331964 17588.478918835521 75852.109537392855 112379.02939875424 6384.0666674673557 67988.928279653192 51112.200237862766 7086.3117655068636
leaf_count=42837 75302 59054 27879 168042 218391 48620 113141 340749 13174
internal_value=0.011264 0.0133722 0.0118691 0.0095841 0.0135859 0.000918646 0.0163534 0.00157597 0.0152008
internal_weight=412176 342397 227634 97666.2 129968 69778.3 114764 63394.2 75075.2
internal_count=1107189 642518 457149 210879 246270 464671 185369 416051 126315
is_linear=0
shrinkage=0.03


Tree=51
num_leaves=10
num_cat=0
split_feature=1 15 18 6 23 22 23 6 1
split_gain=9420.84 1632.23 949.397 1093.29 690.729 313.357 307.656 258.053 210.371
threshold=-0.023332433826511827 0.2966280894711289 0.70439131918212994 1.0000000180025095e-35 -0.5560292756022428 1.2180279720963358 -0.43688017294527765 1.0000000180025095e-35 -0.023012036967957384
decision_type=2 2 2 2 2 2 2 2 2
left_child=1 2 4 -4 -1 7 -3 -2 -9
right_child=5 6 3 -5 -6 -7 -8 8 -10
leaf_value=0.016624815062506505 0.0054232322326194819 0.018052296906024955 0.01600776222844447 0.0056794144931671085 0.01169937630312414 -0.0054574117366541193 0.014773971993256063 -0.010364961700732119 0.00092557758059765754
leaf_weight=31258.355090901256 12327.88632132113 39524.153144046664 11896.338504984975 41149.473819226027 143326.61208544672 6358.3325301334262 74929.042791411281 1529.8035798892379 49603.691013611853
leaf_count=51105 75302 59054 23738 96839 285467 48620 126315 12122 328627
internal_value=0.0109335 0.0129832 0.0115132 0.00799653 0.0125815 0.000890469 0.0159065 0.00152703 0.000587006
internal_weight=411904 342084 227631 53045.8 174585 69819.7 114453 63461.4 51133.5
internal_count=1107189 642518 457149 120577 336572 464671 185369 416051 340749
is_linear=0
shrinkage=0.03


Tree=52
num_leaves=10
num_cat=0
split_feature=1 10 14 10 22 15 23 22 22
split_gain=8887.17 1575.58 925.953 532.989 341.888 305.361 297.683 234.469 197.239
threshold=-0.023332433826511827 -0.34445895055415188 -0.37319272026686917 0.98739279770780974 -1.1656337256099965 -0.52925084471934625 -0.41854954176728271 1.0244919336870764 -1.1726155943634011
decision_type=2 2 2 2 2 2 2 2 2
left_child=1 6 4 -4 -3 -2 -1 -7 -8
right_child=5 2 3 -5 -6 7 8 -9 -10
leaf_value=0.017639373882529508 -0.0026437030158778744 0.012927067225585629 0.013046954099408066 0.0067546720401824786 0.0075330536349096982 0.00319798582971767 0.017198398194018544 -0.0013004807503243236 0.013494570626629379
leaf_weight=39559.593710616231 16924.805687732995 12771.28455285728 142752.22877940536 13265.566299185157 62165.562127843499 38667.354049265385 17143.7835585922 14266.910294249654 54082.829286843538
leaf_count=59337 133258 26082 264406 29632 142838 238295 27250 93118 92973
internal_value=0.0106136 0.0126067 0.0111953 0.0125122 0.0084529 0.000863138 0.0155486 0.00198498 0.0143867
internal_weight=411600 341741 230955 156018 74936.8 69859.1 110786 52934.3 71226.6
internal_count=1107189 642518 462958 294038 168920 464671 179560 331413 120223
is_linear=0
shrinkage=0.03


Tree=53
num_leaves=10
num_cat=0
split_feature=1 23 10 6 18 6 10 23 6
split_gain=8384.33 1511.36 1027.84 572.906 366.165 360.221 285.851 274.952 250.57
threshold=-0.023332433826511827 -0.25850903109786821 0.61902805073603073 1.0000000180025095e-35 0.30451334489264753 1.0000000180025095e-35 0.84025492080162711 -0.87329019983676537 1.0000000180025095e-35
decision_type=2 2 2 2 2 2 2 2 2
left_child=1 4 3 -3 7 -4 8 -1 -2
right_child=6 2 5 -5 -6 -7 -8 -9 -10
leaf_value=0.018789003398853709 0.0055646800783454731 0.015530048875817474 0.011563350201262566 0.011101020290556523 0.012264987300512925 0.0059064479408639358 -0.0042895477931578878 0.01497016983214727 0.00063686874773134252
leaf_weight=23513.572922825813 11415.296078853309 32702.129742652178 13336.49417950213 135080.90207391977 32299.925857409835 42405.017852947116 8583.5874267667532 62041.37038590014 49897.148392371833
leaf_count=35103 67263 58109 29225 258282 57460 101970 70046 102369 327362
internal_value=0.0103035 0.0122417 0.0107917 0.0119645 0.0149915 0.00726062 0.000836697 0.0160203 0.00155491
internal_weight=411275 341379 223525 167783 117855 55741.5 69896 85554.9 61312.4
internal_count=1107189 642518 447586 316391 194932 131195 464671 137472 394625
is_linear=0
shrinkage=0.03


Tree=54
num_leaves=10
num_cat=0
split_feature=1 15 18 6 23 1 23 6 13
split_gain=7910.06 1484.7 910.325 922.791 662.205 278.267 275.304 263.319 243.977
threshold=-0.023332433826511827 0.32862839837102359 0.91846740642801372 1.0000000180025095e-35 -0.69491905798935549 -0.023012036967957384 -0.41854954176728271 1.0000000180025095e-35 -0.33682671655240365
decision_type=2 2 2 2 2 2 2 2 2
left_child=1 2 4 -4 -1 -2 -3 -7 -9
right_child=5 6 3 -5 -6 7 -8 8 -10
leaf_value=0.016020444397952509 -0.0094365863167830827 0.016806492928167303 0.014942465465376108 0.0040257249106813034 0.010721429505106517 0.0050316884426000134 0.013651273333763472 -0.0021245449487358381 0.0019386073767234903
leaf_weight=24345.676471054554 2304.5536870285869 38887.062633350492 8951.5067715346813 31523.268998622894 167308.30299705267 12818.599583514035 69996.381724730134 22703.370694078505 32105.308084309101
leaf_count=39481 18311 58776 17916 75729 332071 78079 118545 158822 209459
internal_value=0.0100027 0.0118875 0.0105312 0.00644115 0.0113948 0.000811103 0.0147786 0.00116089 0.000254974
internal_weight=410944 341012 232129 40474.8 191654 69931.8 108883 67627.3 54808.7
internal_count=1107189 642518 465197 93645 371552 464671 177321 446360 368281
is_linear=0
shrinkage=0.03


Tree=55
num_leaves=10
num_cat=0
split_feature=1 23 22 10 15 22 22 20 1
split_gain=7324.23 1505.58 606.463 594.399 550.738 367.912 284.749 283.575 263.013
threshold=-0.023332433826511827 0.13982968488547634 -1.2597555998336993 0.69251555015288802 -0.7079737924167695 -1.1436857627528814 -1.2946874900910352 -0.31183958553290281 -0.023012036967957384
decision_type=2 2 2 2 2 2 2 2 2
left_child=1 2 -1 5 -4 -3 -2 -5 -8
right_child=6 3 4 7 -6 -7 8 -9 -10
leaf_value=0.017027864023958863 0.0060616414595508639 0.013546660395582838 0.0076552367971361567 0.016949670538949517 0.013089836965037909 0.009314078310835772 -0.010352978857407828 0.0050261241874063186 0.00050426544826572635
leaf_weight=31265.769968986511 8285.3424610793591 23646.329317942262 18978.155035212636 1903.011931180954 147304.54844103754 85482.610819429159 2076.9440415650606 32219.080419659615 59658.490601360798
leaf_count=49288 50010 43299 39876 4103 254728 172031 16767 80001 398088
internal_value=0.00967737 0.0114931 0.0131914 0.00915064 0.0124698 0.0102316 0.000839741 0.00569246 0.000138351
internal_weight=410820 340800 197548 143251 166283 109129 70020.8 34122.1 61735.4
internal_count=1108191 643326 343892 299434 294604 215330 464865 84104 414855
is_linear=0
shrinkage=0.03


Tree=56
num_leaves=10
num_cat=0
split_feature=1 23 10 23 6 7 15 13 1
split_gain=6911.46 1440.07 686.599 488.268 430.53 381.76 276.305 242.572 278.285
threshold=-0.023332433826511827 0.042536334786889257 0.94642595480971381 -0.81970835485493454 1.0000000180025095e-35 0.88791968686987899 0.62753626871134294 -0.62764706149020866 -0.015458245581736163
decision_type=2 2 2 2 2 2 2 2 2
left_child=1 3 4 -1 -3 -5 7 -2 -9
right_child=6 2 -4 5 -6 -7 -8 8 -10
leaf_value=0.016148737408527625 -0.0031510142617612483 0.013024853981277644 0.0033612627322281087 0.013127657625893976 0.008970655333171932 0.0094862295774420062 0.0043216266362656602 0.0016025566803646273 -0.014113850028185429
leaf_weight=36200.490881696343 17140.458729989827 29566.398707985878 16681.50368000567 106252.94383409619 117318.91375680268 34383.72330699861 15686.100177973509 36190.531425014138 1041.9042436853051
leaf_count=56560 126485 56388 42754 185190 238958 63476 85470 246209 6701
internal_value=0.00939543 0.0111615 0.00913188 0.0130386 0.00978701 0.0122377 0.000814022 -0.0001974 0.00116158
internal_weight=410463 340404 163567 176837 146885 140637 70059 54372.9 37232.4
internal_count=1108191 643326 338100 305226 295346 248666 464865 379395 252910
is_linear=0
shrinkage=0.03


Tree=57
num_leaves=10
num_cat=0
split_feature=1 10 21 13 15 13 22 1 7
split_gain=6521.51 1392.11 760.315 674.148 366.547 343.873 261.79 248.921 193.541
threshold=-0.023332433826511827 0.64053598488480423 0.095949738408472915 0.6164177474104019 -1.0188523271936376 -0.066202228901946172 -1.2946874900910352 -0.023012036967957384 1.4859632297939673
decision_type=2 2 2 2 2 2 2 2 2
left_child=1 2 3 -1 -3 -6 -2 -8 -4
right_child=6 4 8 -5 5 -7 7 -9 -10
leaf_value=0.011395622009757857 0.0057809508451117314 0.0019858438128820921 0.0087460800457086034 0.014913405020643282 0.0055623053975418632 0.010152446832441441 -0.010130118081163167 0.00046969798878614816 -0.0016047082526956162
leaf_weight=149091.15289622545 8330.5608078315854 10826.340998440981 46133.858383581042 73216.530525892973 27775.202667281032 31290.664105936885 2061.7429933175445 59701.484906129539 1679.8521977812052
leaf_count=270075 50010 27063 90273 121714 66796 63638 16767 398088 3767
internal_value=0.00912166 0.0108393 0.0118159 0.0125544 0.00706432 0.00799461 0.000789084 0.000115217 0.00838177
internal_weight=410107 340014 270121 222308 69892.2 59065.9 70093.8 61763.2 47813.7
internal_count=1108191 643326 485829 391789 157497 130434 464865 414855 94040
is_linear=0
shrinkage=0.03


Tree=58
num_leaves=10
num_cat=0
split_feature=1 14 15 22 15 22 20 6 15
split_gain=6153.93 1369.88 604.187 490.622 401.568 387.102 279.881 275.026 260.887
threshold=-0.023332433826511827 -0.046766480443349655 -0.6300761437456921 -1.2597555998336993 -0.7079737924167695 -1.1436857627528814 -0.30718413980739617 -2.7513323972778276 0.62753626871134294
decision_type=2 2 2 2 2 2 2 2 2
left_child=1 2 6 -3 -5 -4 -1 -2 -9
right_child=7 3 5 4 -6 -7 -8 8 -10
leaf_value=0.015254554281059521 0.011947734792577134 0.015985049594441973 0.012723380194553239 0.00725928333952047 0.012217356697501765 0.0086626358630761454 0.0045184799114745015 -0.00055457985935341853 0.0038780785380043239
leaf_weight=2333.0101500451565 1924.1978419646621 28200.212907522917 26979.595602631569 16583.545451208949 132205.44966441393 98258.101739853621 35053.549931392074 52759.458699204028 15445.857047721744
leaf_count=4982 11370 44518 49168 34403 227929 196252 86074 369361 84134
internal_value=0.00885608 0.0105268 0.00853837 0.0123536 0.011665 0.00953776 0.00518963 0.000764945 0.000448848
internal_weight=409743 339613 162624 176989 148789 125238 37386.6 70129.5 68205.3
internal_count=1108191 643326 336476 306850 262332 245420 91056 464865 453495
is_linear=0
shrinkage=0.03


Tree=59
num_leaves=10
num_cat=0
split_feature=1 23 22 10 20 10 22 1 18
split_gain=5807.61 1311.94 594.096 482.401 473.391 335.324 242.461 235.267 219.615
threshold=-0.023332433826511827 0.19482157841945999 -1.2597555998336993 0.99749246038162942 -0.1704811425323953 0.77651056433364485 -1.2946874900910352 -0.023012036967957384 -0.29732320227031056
decision_type=2 2 2 2 2 2 2 2 2
left_child=1 2 -1 -4 8 -6 -2 -8 -3
right_child=6 4 3 -5 5 -7 7 -9 -10
leaf_value=0.015441248094263168 0.0055329053498629896 0.013214689541640449 0.011388380111567814 0.0042661189828850339 0.0076408340166468159 0.0032851253783474921 -0.0099063846046661443 0.0004351443418737853 0.0088358763270737928
leaf_weight=32490.163445413113 8370.5391598343849 15858.061065033078 165663.44878053665 9041.2778019607067 65304.349723190069 21068.722045823932 2046.6598894074559 59744.588871188462 29764.125000998378
leaf_count=52034 50010 28773 293564 20077 135202 53415 16767 398088 60261
internal_value=0.00859881 0.010224 0.0117135 0.01102 0.00788558 0.00657876 0.000741589 9.19702e-05 0.0103588
internal_weight=409352 339190 207195 174705 131995 86373.1 70161.8 61791.2 45622.2
internal_count=1108191 643326 365675 313641 277651 188617 464865 414855 89034
is_linear=0
shrinkage=0.03


Tree=60
num_leaves=10
num_cat=0
split_feature=1 20 18 6 19 6 6 23 9
split_gain=5223.5 1147.93 717.108 651.693 601.437 461.521 294.435 243.377 201.216
threshold=-0.023332433826511827 -0.00045470584188680535 -0.25289231623814573 1.0000000180025095e-35 0.034324761136347595 1.0000000180025095e-35 1.0000000180025095e-35 -0.87329019983676537 -0.50463762751197128
decision_type=2 2 2 2 2 2 2 2 2
left_child=1 2 7 -3 -5 -4 -2 -1 -8
right_child=6 3 5 4 -6 -7 8 -9 -10
leaf_value=0.016866824312165619 0.0048778687117509469 0.011472219820968688 0.013318425268011035 0.0031001266246828162 0.0082185619550603894 0.008726929070191838 -0.011593035621192882 0.012455646226586591 0.00023313945538898948
leaf_weight=12992.017190158367 13557.638201028109 27228.057508319616 24516.465799614787 34787.794768020511 50971.554727762938 101157.19515371323 1324.8406993746758 87053.688852488995 55350.445013217628
leaf_count=19492 82692 52381 43695 79216 100176 195938 10836 152750 371202
internal_value=0.00835289 0.00989684 0.0111328 0.00742739 0.00614271 0.00962298 0.000906561 0.0130289 -4.29794e-05
internal_weight=408940 338707 225719 112987 85759.3 125674 70232.9 100046 56675.3
internal_count=1108378 643648 411875 231773 179392 239633 464730 172242 382038
is_linear=0
shrinkage=0.03


Tree=61
num_leaves=10
num_cat=0
split_feature=1 10 18 6 10 10 6 21 6
split_gain=4929.71 1336.53 659.533 839.172 375.848 289.904 258.06 236.225 233.248
threshold=-0.023332433826511827 -0.2434796313579676 -0.063051257737078384 1.0000000180025095e-35 1.1215773067721173 0.84025492080162711 1.0000000180025095e-35 -0.10394799692540176 1.0000000180025095e-35
decision_type=2 2 2 2 2 2 2 2 2
left_child=1 7 4 -4 -3 6 -2 -1 -9
right_child=5 2 3 -5 -6 -7 -8 8 -10
leaf_value=0.012965478484591338 0.0056254985809423112 0.010229105715502687 0.011477017860602992 0.0050709050333908852 0.0023575073396936114 -0.0042906319217744637 0.00066206082092191163 0.014694855189122872 0.0087405198534085925
leaf_weight=86863.650902539492 11618.481476791203 104789.17664544284 23723.152881801128 82271.366669043899 5770.553237721324 8569.0009029209614 50086.771852493286 7591.8171515613794 27303.884022250772
leaf_count=142720 67282 198524 46662 181120 13546 70244 327204 12206 48870
internal_value=0.00810946 0.00961132 0.00819691 0.00650507 0.00981855 0.00087877 0.00159719 0.0121266 0.0100372
internal_weight=408588 338314 216554 105995 110560 70274.3 61705.3 121759 34895.7
internal_count=1108378 643648 439852 227782 212070 464730 394486 203796 61076
is_linear=0
shrinkage=0.03


Tree=62
num_leaves=10
num_cat=0
split_feature=1 10 13 22 10 10 22 1 7
split_gain=4653.14 1277.83 660.32 398.365 374.497 277.537 269.96 231.445 226.397
threshold=-0.023332433826511827 -0.34445895055415188 -0.066202228901946172 -1.1586531211325559 1.1215773067721173 -0.67319562934701926 1.2180279720963358 -0.022531363117182086 1.4859632297939673
decision_type=2 2 2 2 2 2 2 2 2
left_child=1 8 3 -3 -4 7 -7 -2 -1
right_child=5 2 4 -5 -6 6 -8 -9 -10
leaf_value=0.012314693056980477 -0.017815658024701642 0.010588262271843387 0.0098669935200155698 0.0054477166533368595 0.0022823142709722309 0.00054606355071573631 -0.0063834090388473624 0.0048923805788329581 0.0054153949261573084
leaf_weight=103453.68991094828 413.12447828054428 16146.037936165929 122084.20571775734 85553.233842819929 6165.911421045661 48543.442081086338 5647.3997269868851 15707.761710852385 4484.1508954018354
leaf_count=171575 2684 31212 230794 187264 14489 332835 44870 84341 8314
internal_value=0.00787387 0.00933499 0.00807054 0.00626423 0.0095026 0.000851875 -0.00017563 0.00430752 0.0120284
internal_weight=408199 337887 229949 101699 128250 70311.7 54190.8 16120.9 107938
internal_count=1108378 643648 463759 218476 245283 464730 377705 87025 179889
is_linear=0
shrinkage=0.03


Tree=63
num_leaves=10
num_cat=0
split_feature=1 14 22 6 23 6 22 6 22
split_gain=4392.03 1109.99 620.342 411.631 355.898 261.371 243.548 213.516 199.726
threshold=-0.023332433826511827 0.1386549041648267 1.1756373020721942 -1.5707973238884452 -0.81970835485493454 1.0000000180025095e-35 -1.2186756882806691 1.0000000180025095e-35 1.2180279720963358
decision_type=2 2 2 2 2 2 2 2 2
left_child=1 2 3 -1 -3 -2 -6 -4 -7
right_child=5 4 7 -5 6 8 -8 -9 -10
leaf_value=0.013409131576406311 0.0045536713613775742 0.013741553229542012 0.0087969134939757249 0.0078566901156075612 0.013390172292232749 0.00049902037655241466 0.0095585441202780154 0.0018094906687381824 -0.0056299970454070491
leaf_weight=12997.849305719137 13643.032231912017 35329.795128360391 4913.1606986969709 162294.04420426488 18237.543915435672 51429.030111707747 83813.337037682533 19874.176053225994 5274.9000369757414
leaf_count=23916 82692 56557 10424 325773 29751 340759 150263 46964 41279
internal_value=0.00764517 0.00906665 0.00764038 0.00826865 0.0111436 0.000825778 0.0102437 0.00319599 -7.06935e-05
internal_weight=407807 337460 200079 175292 137381 70347 102051 24787.3 56703.9
internal_count=1108378 643648 407077 349689 236571 464730 180014 57388 382038
is_linear=0
shrinkage=0.03


Tree=64
num_leaves=10
num_cat=0
split_feature=1 15 14 6 18 7 6 15 6
split_gain=4145.39 1222.17 493.769 436.593 418.682 331.612 303.998 276.008 216.077
threshold=-0.023332433826511827 -0.26541535916918463 0.82041337913101109 -1.5707973238884452 1.3627762667496601 1.4859632297939673 -1.5707973238884452 -0.75206689886891753 -1.5707973238884452
decision_type=2 2 2 2 2 2 2 2 2
left_child=1 4 3 -3 5 -1 -6 -2 -9
right_child=7 2 -4 -5 6 -7 -8 8 -10
leaf_value=0.0073869483894054367 -0.0041232875499710867 0.01544182524542928 0.014065736062149305 0.0092968033517380807 0.016483426110555279 -0.0010948965467550214 -0.00016468986805682619 0.0084798373551138503 0.0010622280329214602
leaf_weight=112961.23906883597 8940.3609731346369 11104.310617417097 26454.992418214679 169796.33226044476 1079.8968770503998 4300.0604339390993 11344.893731176853 3766.1055616661906 57677.388777300715
leaf_count=235742 73219 17947 41077 306745 2131 9972 30034 21188 370323
internal_value=0.00742294 0.00880579 0.0102347 0.00967426 0.00652074 0.00707565 0.00128107 0.000800517 0.0015175
internal_weight=407426 337042 207356 180901 129686 117261 12424.8 70383.9 61443.5
internal_count=1108378 643648 365769 324692 277879 245714 32165 464730 391511
is_linear=0
shrinkage=0.03


Tree=65
num_leaves=10
num_cat=0
split_feature=9 20 6 13 13 6 15 14 6
split_gain=4082.2 1191.21 711.877 618.226 609.743 352.741 342.505 265.372 228.326
threshold=-0.58911329994368278 -0.038429518977123413 1.0000000180025095e-35 0.18018723000369424 0.063051257737078426 1.0000000180025095e-35 -0.80717445870960736 0.94026750606405285 1.0000000180025095e-35
decision_type=2 2 2 2 2 2 2 2 2
left_child=1 4 -3 -4 5 -1 -2 -6 -8
right_child=6 2 3 -5 7 -7 8 -9 -10
leaf_value=0.0119940599226066 -0.0054932459028293754 0.010357048519285797 0.0025524958750593289 0.0073455470145911521 0.011113597473886037 0.0075268364382967768 0.0051338226266339345 0.015949929822357121 0.00053284328072712988
leaf_weight=19750.725056916475 7211.2182210609317 30645.658178657293 45373.739801377058 52013.020777702332 94884.615077286959 82518.21760340035 11987.862326547503 11486.022367402911 51119.520501248538
leaf_count=35397 60017 58602 101562 101498 167169 161249 69284 17314 334903
internal_value=0.00727393 0.00864705 0.00636833 0.00511276 0.0100452 0.00838997 0.000699228 0.0116363 0.00140739
internal_weight=406991 336672 128032 97386.8 208640 102269 70318.6 106371 63107.4
internal_count=1106995 642791 261662 203060 381129 196646 464204 184483 404187
is_linear=0
shrinkage=0.03


Tree=66
num_leaves=10
num_cat=0
split_feature=1 14 22 22 15 15 10 15 1
split_gain=3852.23 1146.1 594.044 480.034 451.033 323.133 306.336 242.912 175.07
threshold=-0.023332433826511827 -0.22372757373860533 -1.2481444345156303 1.0143789124881304 -0.73650218622399655 -0.80717445870960736 -0.96653982797564308 -0.79928880797282631 -0.023067563169220356
decision_type=2 2 2 2 2 2 2 2 2
left_child=1 3 -3 6 -4 -2 -1 -5 -7
right_child=5 2 4 7 -6 8 -8 -9 -10
leaf_value=0.012593309705427111 -0.0053508001633700937 0.013366400879225169 0.0047033166477743428 -0.0025236312017427151 0.0095817672943498723 -0.011166826937498786 0.0067163186680015349 0.0042536105971041158 0.0015633160987374199
leaf_weight=8858.9630630016327 7181.5787148177624 34342.170946493745 19173.355089336634 5666.3535552024841 156592.89826229215 986.20907627046108 82055.247499585152 29569.102817684412 62179.411071442068
leaf_count=14712 60017 56083 40950 15488 279381 7806 172269 63908 396381
internal_value=0.00706257 0.00839818 0.00975555 0.0061371 0.0090498 0.000677929 0.00728945 0.00316284 0.00136391
internal_weight=406605 336258 210108 126150 175766 70347.2 90914.2 35235.5 63165.6
internal_count=1106995 642791 376414 266377 320331 464204 186981 79396 404187
is_linear=0
shrinkage=0.03


Tree=67
num_leaves=10
num_cat=0
split_feature=1 20 18 10 22 18 10 22 22
split_gain=3635.98 1104.17 578.594 540.433 387.183 381.248 291.785 178.599 177.435
threshold=-0.023332433826511827 -0.038429518977123413 -0.24077480186573716 1.1215773067721173 1.2483155508933101 -0.84261134902869472 0.90878867208407721 -1.3784378009314413 1.1461637337141444
decision_type=2 2 2 2 2 2 2 2 2
left_child=1 2 7 5 -4 -3 8 -1 -2
right_child=6 3 4 -5 -6 -7 -8 -9 -10
leaf_value=0.014212273044402736 0.0019627028304459626 0.0090365718840940187 0.0085428442211611007 -0.0023439799391580239 0.0014214481339702943 0.005336721291786705 -0.0053517132038709142 0.010680976008918609 -0.0023805367958143011
leaf_weight=15581.053802877665 53745.21201903373 35489.309644147754 108199.56851996481 6675.2300677597523 7348.4501063674688 85697.642257750034 6589.04997856915 76821.934888258576 10041.637825652957
leaf_count=25180 337880 66580 204170 17264 16729 177819 55519 135049 70805
internal_value=0.00685788 0.00815725 0.00950641 0.00596271 0.00809022 0.00642053 0.000657217 0.0112769 0.00127847
internal_weight=406189 335813 207951 127862 115548 121187 70375.9 92403 63786.8
internal_count=1106995 642791 381128 261663 220899 244399 464204 160229 408685
is_linear=0
shrinkage=0.03


Tree=68
num_leaves=10
num_cat=0
split_feature=9 14 22 20 10 10 14 6 7
split_gain=3431.25 1094.21 789.343 569.266 275.281 257.817 257.609 223.55 168.738
threshold=-0.58911329994368278 0.38964354644813753 1.1718970709406191 -0.038429518977123413 0.90878867208407721 0.82313792356320137 1.0164101278803381 1.0000000180025095e-35 0.88791968686987899
decision_type=2 2 2 2 2 2 2 2 2
left_child=1 2 3 -1 7 -4 8 -2 -3
right_child=4 6 5 -5 -6 -7 -8 -9 -10
leaf_value=0.0087695648424988195 0.0048978338804404808 0.010750068346356065 0.0036867445208515291 0.0056100895329187052 -0.0052124755459188182 -0.00331343147388866 0.01384387972974065 0.00037696450773243328 0.0073986830160170762
leaf_weight=129015.23178251088 12165.204039804637 54065.474232181907 23944.121912047267 85370.592732682824 6562.5420974195004 5897.1620835214853 18965.225800916553 51675.630977936089 18138.610930547118
leaf_count=243655 70152 91847 51788 176788 55519 16157 29949 338533 32607
internal_value=0.00665867 0.00792257 0.00687523 0.0075116 0.000637119 0.00230232 0.0107278 0.00123897 0.00990869
internal_weight=405800 335396 244227 214386 70403.4 29841.3 91169.3 63840.8 72204.1
internal_count=1106995 642791 488388 420443 464204 67945 154403 408685 124454
is_linear=0
shrinkage=0.03


Tree=69
num_leaves=10
num_cat=0
split_feature=9 15 14 13 6 15 6 22 13
split_gain=3238.28 1052.32 767.927 417.122 386.027 273.349 199.859 158.087 149.388
threshold=-0.58911329994368278 0.58426145196797374 -0.22372757373860533 -1.2739144946853307 -1.5707973238884452 -0.80717445870960736 1.0000000180025095e-35 -1.1510092136753889 -0.61552954711780006
decision_type=2 2 2 2 2 2 2 2 2
left_child=1 2 4 -4 -1 -2 -7 -3 -8
right_child=5 7 3 -5 -6 6 8 -9 -10
leaf_value=0.011055791129341715 -0.004962183295485912 0.013150004798233481 0.0022413584964782311 0.0085672622755179843 0.0043268839015665628 0.004714390850426773 -0.0019857521155739783 0.010016387212225534 0.0015133454832882756
leaf_weight=8327.2490865141153 7101.5342321693897 20080.565097048879 10046.141706243157 144775.70454496145 98676.420440763235 12085.318600729108 15931.848240695894 53055.917453095317 35310.53040227294
leaf_count=16292 60017 31905 21988 265655 216850 69284 109406 90101 225497
internal_value=0.00646558 0.00769506 0.006806 0.008157 0.00485092 0.000617709 0.00124398 0.0108773 0.000424833
internal_weight=405391 334962 261826 154822 107004 70429.2 63327.7 73136.5 51242.4
internal_count=1106995 642791 520785 287643 233142 464204 404187 122006 334903
is_linear=0
shrinkage=0.03


Tree=70
num_leaves=10
num_cat=0
split_feature=9 10 15 21 14 6 18 10 13
split_gain=3113.3 1134.27 499.644 428.254 391.979 379.327 292.25 220.94 185.362
threshold=-0.58468000245731966 0.24547859048274531 -1.0468898865501659 -0.063952458039800139 0.39880886203713489 1.0000000180025095e-35 -0.53563431826101138 0.19232149048704381 -0.67611711897984261
decision_type=2 2 2 2 2 2 2 2 2
left_child=1 3 -3 6 -4 -5 -1 -2 -9
right_child=7 2 4 5 -6 -7 -8 8 -10
leaf_value=0.011655330894200166 0.0019671059849016882 -0.0016196698526456926 0.0049915603605221823 0.011233078883004059 0.0091478777290372303 0.0054316377017496484 0.0087693010901661907 -0.004801843875269135 0.00017595354814645606
leaf_weight=49312.444262161851 39514.296596653759 8691.2269151434302 104123.59025965631 13093.969066224992 25437.105323918164 45265.733227021992 88445.527629978955 9904.6014584973454 20985.312395788729
leaf_count=82077 231711 21978 226968 22613 46194 86498 157112 79399 153134
internal_value=0.00621513 0.00742242 0.00534072 0.00888971 0.00580788 0.00673397 0.00980269 0.000480905 -0.00141927
internal_weight=404774 334370 138252 196118 129561 58359.7 137758 70404.2 30889.9
internal_count=1107684 643440 295140 348300 273162 109111 239189 464244 232533
is_linear=0
shrinkage=0.03


Tree=71
num_leaves=10
num_cat=0
split_feature=9 10 15 7 13 13 6 15 13
split_gain=2937.79 1076.3 470.312 427.009 383.216 361.752 210.774 219.965 192.912
threshold=-0.58468000245731966 0.24547859048274531 -1.0468898865501659 1.4859632297939673 -0.28835665906276936 1.0041782073274754 -2.7513323972778276 -0.17595107345105279 -0.67611711897984261
decision_type=2 2 2 2 2 2 2 2 2
left_child=1 3 -3 5 -4 -1 -2 8 -8
right_child=6 2 4 -5 -6 -7 7 -9 -10
leaf_value=0.0082347896932989974 0.010152760315693381 -0.0015712986519646661 0.0035877553891790512 0.001813627068640838 0.0069370946637884855 0.011432210664214603 -0.0052725504613950107 0.0016752758337892414 -9.0403001950976105e-05
leaf_weight=147050.13859605789 1964.4523987323046 8690.0649696737528 50349.332924537361 7922.7785092070699 79172.838812060654 40746.17760964483 9530.19723405689 38791.3089658916 20136.199877284467
leaf_count=264162 11337 21978 115320 15628 157842 68510 77075 228243 147589
internal_value=0.0060351 0.0072094 0.00518203 0.00864089 0.00563537 0.00892875 0.000466301 0.000187758 -0.00175628
internal_weight=404353 333931 138212 195719 129522 187796 70422.2 68457.7 29666.4
internal_count=1107684 643440 295140 348300 273162 332672 464244 452907 224664
is_linear=0
shrinkage=0.03


Tree=72
num_leaves=10
num_cat=0
split_feature=1 10 20 10 14 6 14 10 1
split_gain=2767.15 1023.14 436.034 435.613 370.4 364.721 280.435 192.979 207.292
threshold=-0.023332433826511827 0.24547859048274531 -0.044280958173858978 1.1515548964849567 0.39880886203713489 1.0000000180025095e-35 -0.23641801070798626 0.19232149048704381 -0.022748315652835454
decision_type=2 2 2 2 2 2 2 2 2
left_child=1 2 6 4 -3 -4 -1 8 -2
right_child=7 3 5 -5 -6 -7 -8 -9 -10
leaf_value=0.0071563176015846976 -0.011496858591015078 0.0046710994611901631 0.010644337936798583 -0.0014429667887697086 0.0087178163559793413 0.0049009809343158453 0.010161564480982824 -0.0013169085854468981 0.00219894935920857
leaf_weight=39060.507819652557 1019.2794867902994 104020.74402283132 12855.373030334711 8767.5132097005844 25342.536371454597 44279.350244656205 99089.348739892244 30873.05653654784 38638.004480272532
leaf_count=73007 7185 226601 22285 22136 46095 84983 167713 232861 224818
internal_value=0.00586009 0.00700211 0.00840003 0.00502552 0.00546415 0.00619393 0.00931214 0.000461028 0.0018459
